{"learner":{"attributes":{"scikit_learn":"{\"_estimator_type\": \"classifier\"}"},"feature_names":["SST","Chlorophyll","Salinity","Bathymetry","SST_Gradient","Is_Thermal_Front","Month","Bathy_Slope","Dist_to_Shore_km","Dist_to_Shelf_km"],"feature_types":["float","float","float","float","float","int","int","float","float","float"],"gradient_booster":{"model":{"cats":{"enc":[],"feature_segments":[],"sorted_idx":[]},"gbtree_model_param":{"num_parallel_tree":"1","num_trees":"500"},"iteration_indptr":[0,1,2,3,4,5,6,7,8,9,10,11,12,13,14,15,16,17,18,19,20,21,22,23,24,25,26,27,28,29,30,31,32,33,34,35,36,37,38,39,40,41,42,43,44,45,46,47,48,49,50,51,52,53,54,55,56,57,58,59,60,61,62,63,64,65,66,67,68,69,70,71,72,73,74,75,76,77,78,79,80,81,82,83,84,85,86,87,88,89,90,91,92,93,94,95,96,97,98,99,100,101,102,103,104,105,106,107,108,109,110,111,112,113,114,115,116,117,118,119,120,121,122,123,124,125,126,127,128,129,130,131,132,133,134,135,136,137,138,139,140,141,142,143,144,145,146,147,148,149,150,151,152,153,154,155,156,157,158,159,160,161,162,163,164,165,166,167,168,169,170,171,172,173,174,175,176,177,178,179,180,181,182,183,184,185,186,187,188,189,190,191,192,193,194,195,196,197,198,199,200,201,202,203,204,205,206,207,208,209,210,211,212,213,214,215,216,217,218,219,220,221,222,223,224,225,226,227,228,229,230,231,232,233,234,235,236,237,238,239,240,241,242,243,244,245,246,247,248,249,250,251,252,253,254,255,256,257,258,259,260,261,262,263,264,265,266,267,268,269,270,271,272,273,274,275,276,277,278,279,280,281,282,283,284,285,286,287,288,289,290,291,292,293,294,295,296,297,298,299,300,301,302,303,304,305,306,307,308,309,310,311,312,313,314,315,316,317,318,319,320,321,322,323,324,325,326,327,328,329,330,331,332,333,334,335,336,337,338,339,340,341,342,343,344,345,346,347,348,349,350,351,352,353,354,355,356,357,358,359,360,361,362,363,364,365,366,367,368,369,370,371,372,373,374,375,376,377,378,379,380,381,382,383,384,385,386,387,388,389,390,391,392,393,394,395,396,397,398,399,400,401,402,403,404,405,406,407,408,409,410,411,412,413,414,415,416,417,418,419,420,421,422,423,424,425,426,427,428,429,430,431,432,433,434,435,436,437,438,439,440,441,442,443,444,445,446,447,448,449,450,451,452,453,454,455,456,457,458,459,460,461,462,463,464,465,466,467,468,469,470,471,472,473,474,475,476,477,478,479,480,481,482,483,484,485,486,487,488,489,490,491,492,493,494,495,496,497,498,499,500],"tree_info":[0,0,0,0,0,0,0,0,0,0,0,0,0,0,0,0,0,0,0,0,0,0,0,0,0,0,0,0,0,0,0,0,0,0,0,0,0,0,0,0,0,0,0,0,0,0,0,0,0,0,0,0,0,0,0,0,0,0,0,0,0,0,0,0,0,0,0,0,0,0,0,0,0,0,0,0,0,0,0,0,0,0,0,0,0,0,0,0,0,0,0,0,0,0,0,0,0,0,0,0,0,0,0,0,0,0,0,0,0,0,0,0,0,0,0,0,0,0,0,0,0,0,0,0,0,0,0,0,0,0,0,0,0,0,0,0,0,0,0,0,0,0,0,0,0,0,0,0,0,0,0,0,0,0,0,0,0,0,0,0,0,0,0,0,0,0,0,0,0,0,0,0,0,0,0,0,0,0,0,0,0,0,0,0,0,0,0,0,0,0,0,0,0,0,0,0,0,0,0,0,0,0,0,0,0,0,0,0,0,0,0,0,0,0,0,0,0,0,0,0,0,0,0,0,0,0,0,0,0,0,0,0,0,0,0,0,0,0,0,0,0,0,0,0,0,0,0,0,0,0,0,0,0,0,0,0,0,0,0,0,0,0,0,0,0,0,0,0,0,0,0,0,0,0,0,0,0,0,0,0,0,0,0,0,0,0,0,0,0,0,0,0,0,0,0,0,0,0,0,0,0,0,0,0,0,0,0,0,0,0,0,0,0,0,0,0,0,0,0,0,0,0,0,0,0,0,0,0,0,0,0,0,0,0,0,0,0,0,0,0,0,0,0,0,0,0,0,0,0,0,0,0,0,0,0,0,0,0,0,0,0,0,0,0,0,0,0,0,0,0,0,0,0,0,0,0,0,0,0,0,0,0,0,0,0,0,0,0,0,0,0,0,0,0,0,0,0,0,0,0,0,0,0,0,0,0,0,0,0,0,0,0,0,0,0,0,0,0,0,0,0,0,0,0,0,0,0,0,0,0,0,0,0,0,0,0,0,0,0,0,0,0,0,0,0,0,0,0,0,0,0,0,0,0,0,0,0,0,0,0,0,0,0,0,0,0,0,0,0,0,0,0,0,0,0,0,0,0,0,0,0,0,0,0,0,0,0,0,0,0,0,0,0,0,0,0,0,0,0,0],"trees":[{"base_weights":[2.1625203E-3,1.0240372E0,-1.2456887E0,1.1368986E0,-1.6295104E0,-1.6955615E0,-6.216264E-1,4.9829617E-1,1.3491971E0,-9.2908704E-1,-9.7246096E-2,-6.778731E-1,-1.8090106E0,-7.164805E-2,-1.8193253E0,9.490886E-1,-1.6544297E-2,7.4868804E-1,1.4093196E0,-1.3019354E0,-2.0363636E-1,-1.1651534E0,-2.5117272E-1,-1.588594E0,-1.968972E0,7.670819E-2,-1.8884437E0,-1.2038461E0,-1.8700413E0,1.1069746E0,-8.4105265E-1,1.3610619E0,-9.720497E-2,-1.6984615E-1,1.3731469E0,1.4749458E0,8.8749534E-1,-1.0411483E0,-1.767619E0,-7.714286E-1,5.859155E-1,-5.520295E-1,-1.4591241E0,-8.865342E-1,3.3865032E-1,-1.3757814E0,-1.8765591E0,-1.9791025E0,-1.518894E0,-4.299422E-1,4.6706748E-1,-9.550955E-2,-5.1200002E-2,-4.3773586E-1,-9.732484E-2,-1.8855702E0,-9.657143E-1,3.0750329E-2,8.309145E-2,-7.336735E-2,-8.404256E-3,7.746341E-2,-1.92E-2,-1.965032E-2,1.7912015E-2,-2.969112E-2,1.5357918E-2,8.056146E-2,-6.879311E-2,8.095231E-2,5.9697475E-2,-8.973545E-3,7.3291145E-2,-9.045454E-2,-4.0710058E-2,-4.916667E-2,-9.505882E-2,1.8604652E-3,-6.576271E-2,-1.92E-2,5.1599998E-2,1.4653466E-2,-5.1609196E-2,-8.496599E-2,-5.8062017E-2,-2.1266667E-2,-8.713376E-2,-7.781818E-2,2.8721461E-2,-1.6188236E-2,-7.5304195E-2,-7.44208E-2,-9.712358E-2,-5.4814816E-2,-9.9043295E-2,-9.618182E-2,-5.2972972E-2,1.9914089E-2,-4.2426087E-2,3.760492E-2,-4.7453582E-2,1.1531532E-2,-9.192308E-2,-7.958491E-2,-9.6707195E-2,-6.871795E-2,-1.9428572E-2],"categories":[],"categories_nodes":[],"categories_segments":[],"categories_sizes":[],"default_left":[0,0,0,1,0,0,0,0,0,0,0,1,0,0,0,0,0,0,0,1,0,0,0,0,1,0,0,0,0,0,0,0,0,0,0,1,0,0,0,0,0,0,0,0,0,0,0,0,0,0,0,0,0,0,0,0,0,0,0,0,0,0,0,0,0,0,0,0,0,0,0,0,0,0,0,0,0,0,0,0,0,0,0,0,0,0,0,0,0,0,0,0,0,0,0,0,0,0,0,0,0,0,0,0,0,0,0],"id":0,"left_children":[1,3,5,7,9,11,13,15,17,19,-1,21,23,25,27,29,31,33,35,37,39,41,43,45,47,49,51,53,55,57,59,61,63,65,67,69,71,73,75,77,79,81,83,85,87,89,91,93,95,97,99,-1,-1,101,-1,103,105,-1,-1,-1,-1,-1,-1,-1,-1,-1,-1,-1,-1,-1,-1,-1,-1,-1,-1,-1,-1,-1,-1,-1,-1,-1,-1,-1,-1,-1,-1,-1,-1,-1,-1,-1,-1,-1,-1,-1,-1,-1,-1,-1,-1,-1,-1,-1,-1,-1,-1],"loss_changes":[2.1169977E4,2.735335E3,2.0971719E3,1.1861992E3,8.025409E1,4.999209E2,2.0632495E3,5.0750732E2,2.359502E2,3.1433693E1,0E0,9.0479904E1,1.3425098E2,5.792829E2,2.8211182E1,3.304431E2,1.1351361E2,3.4464902E2,2.029414E2,7.2907104E0,1.8962976E1,3.5717407E1,8.823408E1,9.810254E1,6.946289E0,3.9313535E2,8.006592E-1,4.328781E1,1.0655762E1,2.9130652E2,3.9630013E1,1.9267838E1,1.3028511E2,4.9506714E1,2.3622064E2,2.1249316E2,4.1366492E2,7.37096E0,5.916748E-1,1.0950815E1,8.14088E0,2.7867867E1,7.5429993E0,4.3759087E1,5.5417652E1,1.2979553E2,1.4610107E1,9.5410156E-1,7.751602E0,3.002591E2,4.5388477E2,0E0,0E0,3.7798664E1,0E0,9.30542E0,3.4169827E0,0E0,0E0,0E0,0E0,0E0,0E0,0E0,0E0,0E0,0E0,0E0,0E0,0E0,0E0,0E0,0E0,0E0,0E0,0E0,0E0,0E0,0E0,0E0,0E0,0E0,0E0,0E0,0E0,0E0,0E0,0E0,0E0,0E0,0E0,0E0,0E0,0E0,0E0,0E0,0E0,0E0,0E0,0E0,0E0,0E0,0E0,0E0,0E0,0E0,0E0],"parents":[2147483647,0,0,1,1,2,2,3,3,4,4,5,5,6,6,7,7,8,8,9,9,11,11,12,12,13,13,14,14,15,15,16,16,17,17,18,18,19,19,20,20,21,21,22,22,23,23,24,24,25,25,26,26,27,27,28,28,29,29,30,30,31,31,32,32,33,33,34,34,35,35,36,36,37,37,38,38,39,39,40,40,41,41,42,42,43,43,44,44,45,45,46,46,47,47,48,48,49,49,50,50,53,53,55,55,56,56],"right_children":[2,4,6,8,10,12,14,16,18,20,-1,22,24,26,28,30,32,34,36,38,40,42,44,46,48,50,52,54,56,58,60,62,64,66,68,70,72,74,76,78,80,82,84,86,88,90,92,94,96,98,100,-1,-1,102,-1,104,106,-1,-1,-1,-1,-1,-1,-1,-1,-1,-1,-1,-1,-1,-1,-1,-1,-1,-1,-1,-1,-1,-1,-1,-1,-1,-1,-1,-1,-1,-1,-1,-1,-1,-1,-1,-1,-1,-1,-1,-1,-1,-1,-1,-1,-1,-1,-1,-1,-1,-1],"split_conditions":[4.4630646E1,1.2944156E2,5E0,1.9266053E0,1.4935365E2,5.649914E1,1.8796282E1,3.2031883E1,-6.1E1,6E0,-9.7246096E-2,1.0734541E0,1.186518E2,3.338155E1,2.2508358E1,7.194736E1,3.853084E-1,7E0,6E0,3.1521404E1,7.1519847E0,3.2570343E1,-4.4E1,3.3176113E1,4.0427847E0,-1.77E2,1.802708E-1,1.1755832E2,-2.2E1,-6.1E1,1.0371099E2,3.2570343E1,7.949395E1,-8.7E1,1.6043924E1,3.2142376E1,1.2E1,3.0932728E1,2E0,3.1609678E1,3.8823636E0,3E0,5.814133E1,2.520211E1,2.4644334E-2,2E0,6.487573E1,1.1507905E-1,3.274144E1,4.7212866E-1,1.1755832E2,-9.550955E-2,-5.1200002E-2,9E0,-9.732484E-2,3.2068806E1,3.564804E1,3.0750329E-2,8.309145E-2,-7.336735E-2,-8.404256E-3,7.746341E-2,-1.92E-2,-1.965032E-2,1.7912015E-2,-2.969112E-2,1.5357918E-2,8.056146E-2,-6.879311E-2,8.095231E-2,5.9697475E-2,-8.973545E-3,7.3291145E-2,-9.045454E-2,-4.0710058E-2,-4.916667E-2,-9.505882E-2,1.8604652E-3,-6.576271E-2,-1.92E-2,5.1599998E-2,1.4653466E-2,-5.1609196E-2,-8.496599E-2,-5.8062017E-2,-2.1266667E-2,-8.713376E-2,-7.781818E-2,2.8721461E-2,-1.6188236E-2,-7.5304195E-2,-7.44208E-2,-9.712358E-2,-5.4814816E-2,-9.9043295E-2,-9.618182E-2,-5.2972972E-2,1.9914089E-2,-4.2426087E-2,3.760492E-2,-4.7453582E-2,1.1531532E-2,-9.192308E-2,-7.958491E-2,-9.6707195E-2,-6.871795E-2,-1.9428572E-2],"split_indices":[8,9,6,1,9,8,9,2,3,6,0,1,8,2,9,9,9,6,6,2,1,2,3,2,1,3,4,8,3,3,9,2,9,3,9,2,6,2,6,2,8,6,9,9,4,6,8,9,2,9,8,0,0,6,0,2,2,0,0,0,0,0,0,0,0,0,0,0,0,0,0,0,0,0,0,0,0,0,0,0,0,0,0,0,0,0,0,0,0,0,0,0,0,0,0,0,0,0,0,0,0,0,0,0,0,0,0],"split_type":[0,0,0,0,0,0,0,0,0,0,0,0,0,0,0,0,0,0,0,0,0,0,0,0,0,0,0,0,0,0,0,0,0,0,0,0,0,0,0,0,0,0,0,0,0,0,0,0,0,0,0,0,0,0,0,0,0,0,0,0,0,0,0,0,0,0,0,0,0,0,0,0,0,0,0,0,0,0,0,0,0,0,0,0,0,0,0,0,0,0,0,0,0,0,0,0,0,0,0,0,0,0,0,0,0,0,0],"sum_hessian":[1.66E4,9.1265E3,7.4735E3,8.75475E3,3.7175E2,4.34175E3,3.13175E3,2.18525E3,6.5695E3,1.1675E2,2.55E2,4.3625E2,3.9055E3,2.147E3,9.8475E2,1.16475E3,1.0205E3,5.9925E2,5.97025E3,7.65E1,4.025E1,2.0275E2,2.335E2,1.64725E3,2.25825E3,1.98575E3,1.6125E2,7.7E1,9.0775E2,1.07075E3,9.4E1,5.55E1,9.65E2,2.4275E2,3.565E2,5.3015E3,6.6875E2,5.125E1,2.525E1,2.35E1,1.675E1,6.675E1,1.36E2,1.1225E2,1.2125E2,9.5075E2,6.965E2,2.205E3,5.325E1,8.64E2,1.12175E3,1.56E2,5.25E0,3.875E1,3.825E1,8.9125E2,1.65E1,5.6875E2,5.02E2,4.8E1,4.6E1,5.025E1,5.25E0,5.8525E2,3.7975E2,1.285E2,1.1425E2,3.285E2,2.8E1,3.501E3,1.8005E3,2.3525E2,4.335E2,1E1,4.125E1,5E0,2.025E1,9.75E0,1.375E1,5.25E0,1.15E1,2.425E1,4.25E1,7.25E1,6.35E1,7.4E1,3.825E1,1.275E1,1.085E2,1.0525E2,8.455E2,1.0475E2,5.9175E2,5.75E0,2.19925E3,2.65E1,2.675E1,2.9E2,5.74E2,9.3425E2,1.875E2,2.675E1,1.2E1,1.315E2,7.5975E2,8.75E0,7.75E0],"tree_param":{"num_deleted":"0","num_feature":"10","num_nodes":"107","size_leaf_vector":"1"}},{"base_weights":[-2.0743099E-3,9.843073E-1,-1.1746948E0,4.4013345E-1,1.1687983E0,-6.6982275E-1,-1.6513721E0,8.906647E-1,-7.086423E-2,1.2604156E0,3.1774822E-1,-1.3903722E0,-2.2347149E-1,-8.3883065E-1,-1.7537045E0,1.3940915E0,5.080678E-1,-9.0482074E-1,6.0863916E-2,-5.630827E-1,1.280036E0,-7.8169346E-1,1.3964591E0,-9.775089E-1,-1.7167592E0,7.575439E-2,-1.4311686E0,-1.3362333E0,-3.541836E-2,-1.3119382E0,-1.8625009E0,1.5593284E0,8.6203206E-1,-1.1530417E-2,1.038964E0,4.7397354E-1,-1.0405627E0,-9.989074E-2,1.0100718E0,3.2624918E-1,-9.707381E-1,1.1379364E0,1.5094831E0,-1.8166143E0,-2.2649013E-1,6.169795E-1,1.5700208E0,-1.4026443E0,-7.0665514E-1,-9.2686653E-1,-1.7993864E0,-3.419302E-1,6.046166E-1,-3.9073676E-1,-1.6402968E0,-1.4337318E0,-5.201712E-2,-6.728634E-1,4.072341E-1,-7.7405375E-1,-1.5613074E0,-1.6669351E0,-9.447804E-2,-2.5522902E-3,8.091262E-2,6.358836E-2,2.3963874E-2,2.2071088E-2,-9.934504E-3,-6.0216434E-2,5.9565123E-2,-1.6988121E-2,7.603144E-2,-7.5850405E-2,-3.410257E-2,-2.4098743E-2,1.1544148E-2,7.150466E-2,9.463566E-3,4.748453E-2,-2.6721014E-2,-7.84248E-2,-1.1640574E-2,6.818447E-2,3.711348E-2,3.7825458E-2,7.710664E-2,-9.5715754E-2,-6.289067E-2,1.4279777E-2,-5.4287035E-2,5.880892E-2,9.714863E-3,8.1934705E-2,2.8383374E-2,-7.432767E-2,5.7318736E-2,-4.929359E-2,-7.664559E-3,5.113918E-3,-8.444276E-2,-9.066383E-2,-6.382456E-2,-2.0618788E-3,-4.443094E-2,4.174995E-2,-3.0211141E-2,-8.1562944E-2,2.965184E-2,-4.188065E-2,-8.485413E-2,-3.6926568E-2,-7.874038E-2,-7.985105E-2,2.9415041E-2,-4.8177887E-2,3.634354E-2,-1.3218624E-2,5.249933E-2,-7.109742E-2,-1.3004931E-2,-8.4537625E-2,-4.180327E-2,-9.0338334E-2,4.0099327E-2],"categories":[],"categories_nodes":[],"categories_segments":[],"categories_sizes":[],"default_left":[0,1,0,0,0,0,0,0,1,0,0,0,0,0,0,0,0,0,0,0,0,0,0,0,0,0,0,0,0,0,0,0,0,0,0,0,1,0,0,1,0,0,0,0,1,0,0,0,1,0,1,0,0,0,0,0,0,0,0,0,0,0,0,0,0,0,0,0,0,0,0,0,0,0,0,0,0,0,0,0,0,0,0,0,0,0,0,0,0,0,0,0,0,0,0,0,0,0,0,0,0,0,0,0,0,0,0,0,0,0,0,0,0,0,0,0,0,0,0,0,0,0,0,0,0],"id":1,"left_children":[1,3,5,7,9,11,13,15,17,19,21,23,25,27,29,31,33,35,37,39,41,43,45,47,49,51,53,55,57,59,61,63,65,67,69,71,73,75,77,79,81,83,85,87,89,91,93,95,97,99,101,103,105,107,109,111,113,115,117,119,121,123,-1,-1,-1,-1,-1,-1,-1,-1,-1,-1,-1,-1,-1,-1,-1,-1,-1,-1,-1,-1,-1,-1,-1,-1,-1,-1,-1,-1,-1,-1,-1,-1,-1,-1,-1,-1,-1,-1,-1,-1,-1,-1,-1,-1,-1,-1,-1,-1,-1,-1,-1,-1,-1,-1,-1,-1,-1,-1,-1,-1,-1,-1,-1],"loss_changes":[1.9222023E4,9.0549805E2,1.8259062E3,5.266719E2,5.249658E2,1.18599E3,3.2293066E2,2.3324084E2,1.17952736E2,2.1848242E2,7.797498E2,1.881643E2,8.238959E2,1.7515588E2,1.638623E2,4.4502014E1,1.9111055E2,2.7960777E1,1.4163959E2,2.409532E1,1.9429883E2,1.8654103E2,4.3698242E1,7.080652E1,4.9389893E1,4.0392905E2,9.7655334E1,3.3694702E1,4.7952694E1,9.09259E1,1.1203125E1,3.8065002E1,1.9070755E1,2.980303E1,1.185047E2,1.2343401E1,2.1584488E1,1.004276E2,4.5913956E1,1.1940941E1,1.9383816E1,3.3123926E2,5.5125E1,3.4727478E0,9.4199684E1,1.433004E1,1.7476318E1,5.3542236E1,5.9088547E1,6.0444054E1,2.5388184E0,1.6781006E2,2.2524625E2,9.523259E1,1.5488037E1,2.328778E1,2.1048765E1,2.9076822E1,4.360952E1,7.279994E1,4.2399902E1,1.2125592E2,0E0,0E0,0E0,0E0,0E0,0E0,0E0,0E0,0E0,0E0,0E0,0E0,0E0,0E0,0E0,0E0,0E0,0E0,0E0,0E0,0E0,0E0,0E0,0E0,0E0,0E0,0E0,0E0,0E0,0E0,0E0,0E0,0E0,0E0,0E0,0E0,0E0,0E0,0E0,0E0,0E0,0E0,0E0,0E0,0E0,0E0,0E0,0E0,0E0,0E0,0E0,0E0,0E0,0E0,0E0,0E0,0E0,0E0,0E0,0E0,0E0,0E0,0E0],"parents":[2147483647,0,0,1,1,2,2,3,3,4,4,5,5,6,6,7,7,8,8,9,9,10,10,11,11,12,12,13,13,14,14,15,15,16,16,17,17,18,18,19,19,20,20,21,21,22,22,23,23,24,24,25,25,26,26,27,27,28,28,29,29,30,30,31,31,32,32,33,33,34,34,35,35,36,36,37,37,38,38,39,39,40,40,41,41,42,42,43,43,44,44,45,45,46,46,47,47,48,48,49,49,50,50,51,51,52,52,53,53,54,54,55,55,56,56,57,57,58,58,59,59,60,60,61,61],"right_children":[2,4,6,8,10,12,14,16,18,20,22,24,26,28,30,32,34,36,38,40,42,44,46,48,50,52,54,56,58,60,62,64,66,68,70,72,74,76,78,80,82,84,86,88,90,92,94,96,98,100,102,104,106,108,110,112,114,116,118,120,122,124,-1,-1,-1,-1,-1,-1,-1,-1,-1,-1,-1,-1,-1,-1,-1,-1,-1,-1,-1,-1,-1,-1,-1,-1,-1,-1,-1,-1,-1,-1,-1,-1,-1,-1,-1,-1,-1,-1,-1,-1,-1,-1,-1,-1,-1,-1,-1,-1,-1,-1,-1,-1,-1,-1,-1,-1,-1,-1,-1,-1,-1,-1,-1],"split_conditions":[4.3739464E1,1.9825559E0,3.2788177E1,3.2044376E1,-8E0,5E0,6.395293E1,1.6117987E1,6.6390955E-1,2.9751486E1,2.4656546E0,8.690723E1,-8.3E1,1.0651511E0,3.3176113E1,3.1407146E1,7E0,3.2470055E1,7.4084125E0,3.3852458E0,6.260003E-2,6.392561E-1,4.065914E-2,1.4767447E0,2E0,-1.62E2,5.649914E1,3.6392025E1,-2.8E1,1.04481125E2,3.3561863E1,4E0,4E0,-1.4E2,8.407542E-1,-2E0,3.564804E1,-2.4E1,4E0,3.6158834E-2,8.226594E0,3.2142376E1,-6E1,3.644164E1,3.2166496E1,4E0,4.186043E0,-3.2E1,1.6583331E0,1.09669365E2,5.491055E0,8E0,1.07636826E2,1.5949633E0,3.136001E1,3.520658E1,-3E1,1.0749878E-1,1.7905754E0,1.8011248E0,6E0,1.1E1,-9.447804E-2,-2.5522902E-3,8.091262E-2,6.358836E-2,2.3963874E-2,2.2071088E-2,-9.934504E-3,-6.0216434E-2,5.9565123E-2,-1.6988121E-2,7.603144E-2,-7.5850405E-2,-3.410257E-2,-2.4098743E-2,1.1544148E-2,7.150466E-2,9.463566E-3,4.748453E-2,-2.6721014E-2,-7.84248E-2,-1.1640574E-2,6.818447E-2,3.711348E-2,3.7825458E-2,7.710664E-2,-9.5715754E-2,-6.289067E-2,1.4279777E-2,-5.4287035E-2,5.880892E-2,9.714863E-3,8.1934705E-2,2.8383374E-2,-7.432767E-2,5.7318736E-2,-4.929359E-2,-7.664559E-3,5.113918E-3,-8.444276E-2,-9.066383E-2,-6.382456E-2,-2.0618788E-3,-4.443094E-2,4.174995E-2,-3.0211141E-2,-8.1562944E-2,2.965184E-2,-4.188065E-2,-8.485413E-2,-3.6926568E-2,-7.874038E-2,-7.985105E-2,2.9415041E-2,-4.8177887E-2,3.634354E-2,-1.3218624E-2,5.249933E-2,-7.109742E-2,-1.3004931E-2,-8.4537625E-2,-4.180327E-2,-9.0338334E-2,4.0099327E-2],"split_indices":[8,1,2,2,3,6,8,8,1,2,7,8,3,1,2,2,6,2,7,1,4,7,4,7,6,3,8,2,3,8,2,6,6,3,1,3,2,3,6,4,1,2,3,2,2,6,8,3,1,8,1,6,8,7,2,2,3,4,1,7,6,6,0,0,0,0,0,0,0,0,0,0,0,0,0,0,0,0,0,0,0,0,0,0,0,0,0,0,0,0,0,0,0,0,0,0,0,0,0,0,0,0,0,0,0,0,0,0,0,0,0,0,0,0,0,0,0,0,0,0,0,0,0,0,0],"split_type":[0,0,0,0,0,0,0,0,0,0,0,0,0,0,0,0,0,0,0,0,0,0,0,0,0,0,0,0,0,0,0,0,0,0,0,0,0,0,0,0,0,0,0,0,0,0,0,0,0,0,0,0,0,0,0,0,0,0,0,0,0,0,0,0,0,0,0,0,0,0,0,0,0,0,0,0,0,0,0,0,0,0,0,0,0,0,0,0,0,0,0,0,0,0,0,0,0,0,0,0,0,0,0,0,0,0,0,0,0,0,0,0,0,0,0,0,0,0,0,0,0,0,0,0,0],"sum_hessian":[1.661667E4,9.025065E3,7.5916045E3,2.286055E3,6.7390107E3,3.6880388E3,3.9035657E3,1.2146167E3,1.0714381E3,6.0835103E3,6.555009E2,1.4098171E3,2.2782217E3,4.3776843E2,3.4657974E3,5.232332E2,6.913834E2,1.4545688E2,9.259813E2,6.4411E1,6.019099E3,3.247215E2,3.3077942E2,6.243487E2,7.854685E2,1.8265256E3,4.5169592E2,2.6988907E2,1.6787936E2,6.876361E2,2.7781611E3,3.976271E2,1.2560613E2,3.4980884E2,3.415746E2,1.2747384E1,1.3270949E2,7.9254755E2,1.3343378E2,2.0230654E1,4.4180347E1,3.7210198E3,2.2980793E3,1.1252269E2,2.121988E2,6.117383E1,2.696056E2,2.4120404E2,3.8314462E2,7.565508E1,7.098134E2,1.0206229E3,8.059028E2,7.615662E1,3.755393E2,2.5066417E2,1.9224895E1,6.868084E1,9.9198524E1,2.1924158E2,4.6839456E2,3.457402E2,2.432421E3,1.3980517E1,3.8364658E2,5.9416943E1,6.618919E1,1.0172572E2,2.4808311E2,2.1239883E1,3.2033472E2,7.4978905E0,5.2494936E0,5.5475166E1,7.723432E1,3.6767877E2,4.2486874E2,8.7694466E1,4.57393E1,1.1739611E1,8.491042E0,2.3711655E1,2.0468693E1,2.367507E3,1.3535126E3,9.663733E1,2.201442E3,9.355996E1,1.8962727E1,1.3330472E2,7.889408E1,2.5464994E1,3.5708836E1,2.516312E2,1.7974382E1,2.3395859E2,7.2454557E0,2.5401254E2,1.291321E2,3.249787E1,4.315721E1,6.8885583E2,2.0957624E1,6.592674E2,3.613555E2,6.772277E2,1.2867506E2,3.343682E1,4.2719795E1,2.596916E1,3.4957013E2,4.3457226E1,2.0720695E2,5.241032E0,1.3983864E1,5.718733E1,1.1493506E1,4.872221E1,5.0476315E1,9.611599E1,1.2312558E2,3.9620807E2,7.218649E1,3.2750034E2,1.8239847E1],"tree_param":{"num_deleted":"0","num_feature":"10","num_nodes":"125","size_leaf_vector":"1"}},{"base_weights":[-1.7915713E-3,9.311868E-1,-1.1129321E0,1.0364712E0,-1.5396208E0,-6.300236E-1,-1.5826848E0,4.8369613E-1,1.2355834E0,-9.362471E-1,-1.8002638E0,-1.3808168E0,-2.5217408E-2,-8.143587E-1,-1.7213494E0,8.433445E-1,6.472501E-2,1.3317819E0,9.113175E-1,-1.261546E0,-2.2926763E-1,-9.281779E-2,-1.5173079E0,-9.961956E-1,-1.7092562E0,4.0947065E-1,-5.42153E-1,-1.3090065E0,-4.5813277E-1,-1.4574684E0,-1.7706454E0,9.873035E-1,-6.61028E-1,-8.521531E-2,8.691354E-1,1.3950586E0,8.030725E-1,1.4737632E0,7.856867E-1,1.2825824E-2,-1.4179463E0,-7.070768E-2,2.2811808E-1,-8.6779326E-2,-1.6237162E-2,-8.213846E-1,-9.0930305E-2,-1.4459926E0,-8.89776E-2,4.686622E-2,8.434641E-1,3.4961542E-1,-8.4964156E-1,-1.4066011E0,1.7169511E-1,-1.2054508E0,-9.6645735E-2,-2.527317E-1,-1.5871484E0,-1.6189374E0,-1.7945739E0,6.97526E-2,2.9769516E-2,-5.7526464E-3,-8.060419E-2,-2.6931837E-2,1.5672663E-2,5.6462057E-2,-9.120305E-2,7.525619E-2,5.5475403E-2,-1.664908E-2,7.13437E-2,-6.470862E-2,8.098403E-2,2.443937E-2,6.567226E-2,-9.084877E-2,-6.312029E-2,3.114985E-2,-2.7207432E-2,4.826996E-3,-4.8054855E-2,-6.3661195E-2,-8.9728676E-2,3.6020126E-2,-2.2429515E-2,6.2382728E-2,1.0715578E-2,-5.4795686E-3,7.594406E-2,-2.8245429E-2,-6.865885E-2,-7.242538E-2,9.357556E-3,-5.8281023E-2,6.748455E-2,4.6037786E-2,-7.3574916E-2,-1.5889272E-2,3.682092E-2,1.1046778E-2,-8.611749E-2,-8.68482E-2,-5.231042E-2,-8.2668506E-2,-6.2383503E-2,-8.994849E-2,-6.785094E-2],"categories":[],"categories_nodes":[],"categories_segments":[],"categories_sizes":[],"default_left":[0,0,0,1,0,0,0,0,0,0,0,0,0,0,0,0,0,0,0,0,0,0,0,0,0,0,0,0,0,0,0,0,0,0,0,1,1,0,0,0,1,0,0,0,0,0,0,0,0,0,0,0,0,0,0,0,0,0,1,0,1,0,0,0,0,0,0,0,0,0,0,0,0,0,0,0,0,0,0,0,0,0,0,0,0,0,0,0,0,0,0,0,0,0,0,0,0,0,0,0,0,0,0,0,0,0,0,0,0],"id":2,"left_children":[1,3,5,7,9,11,13,15,17,19,21,23,25,27,29,31,33,35,37,39,41,-1,43,45,47,49,51,53,55,57,59,61,63,65,67,69,71,73,75,-1,77,-1,79,-1,-1,81,-1,83,-1,85,87,89,91,93,95,97,99,101,103,105,107,-1,-1,-1,-1,-1,-1,-1,-1,-1,-1,-1,-1,-1,-1,-1,-1,-1,-1,-1,-1,-1,-1,-1,-1,-1,-1,-1,-1,-1,-1,-1,-1,-1,-1,-1,-1,-1,-1,-1,-1,-1,-1,-1,-1,-1,-1,-1,-1],"loss_changes":[1.7140303E4,2.3395293E3,1.7106875E3,9.480703E2,5.5864136E1,1.6903405E3,4.0581543E2,3.4411932E2,1.9624023E2,2.5575935E1,9.0216064E-1,2.0783936E2,4.6380573E2,1.026087E2,3.9228516E1,2.6688562E2,1.2758418E2,1.6208203E2,1.013053E2,1.8797401E1,2.047422E1,0E0,1.1738518E1,1.0859094E2,1.3655273E1,1.7630008E2,2.5889545E2,3.576712E1,9.234432E1,7.999719E1,6.6416016E0,1.7831409E2,5.566395E1,1.6131453E2,1.1840753E2,1.3513574E2,3.7239545E2,1.0877814E2,1.8567468E2,0E0,1.7526398E0,0E0,8.723899E0,0E0,0E0,8.160599E1,0E0,9.098572E0,0E0,2.045734E2,1.293139E2,1.3045026E2,1.0360272E2,1.5759064E1,2.6760195E1,6.451778E1,4.2965588E1,3.6303436E1,3.5621216E1,2.5291748E0,1.75E0,0E0,0E0,0E0,0E0,0E0,0E0,0E0,0E0,0E0,0E0,0E0,0E0,0E0,0E0,0E0,0E0,0E0,0E0,0E0,0E0,0E0,0E0,0E0,0E0,0E0,0E0,0E0,0E0,0E0,0E0,0E0,0E0,0E0,0E0,0E0,0E0,0E0,0E0,0E0,0E0,0E0,0E0,0E0,0E0,0E0,0E0,0E0,0E0],"parents":[2147483647,0,0,1,1,2,2,3,3,4,4,5,5,6,6,7,7,8,8,9,9,10,10,11,11,12,12,13,13,14,14,15,15,16,16,17,17,18,18,19,19,20,20,22,22,23,23,24,24,25,25,26,26,27,27,28,28,29,29,30,30,31,31,32,32,33,33,34,34,35,35,36,36,37,37,38,38,40,40,42,42,45,45,47,47,49,49,50,50,51,51,52,52,53,53,54,54,55,55,56,56,57,57,58,58,59,59,60,60],"right_children":[2,4,6,8,10,12,14,16,18,20,22,24,26,28,30,32,34,36,38,40,42,-1,44,46,48,50,52,54,56,58,60,62,64,66,68,70,72,74,76,-1,78,-1,80,-1,-1,82,-1,84,-1,86,88,90,92,94,96,98,100,102,104,106,108,-1,-1,-1,-1,-1,-1,-1,-1,-1,-1,-1,-1,-1,-1,-1,-1,-1,-1,-1,-1,-1,-1,-1,-1,-1,-1,-1,-1,-1,-1,-1,-1,-1,-1,-1,-1,-1,-1,-1,-1,-1,-1,-1,-1,-1,-1,-1,-1],"split_conditions":[4.3739464E1,1.2944156E2,1.4429659E1,2.0118113E0,1.4935365E2,5E0,6.395293E1,3.2055523E1,5E0,6E0,6E0,1.0361124E2,9.836457E1,1.0045332E0,2.2962543E1,7.194736E1,7.5665865E0,2.5042301E1,6.044616E0,1.7472781E0,4.669698E0,-9.281779E-2,3.578773E1,3.4027264E1,1.186518E2,1.093527E0,4.7212866E-1,3.6392025E1,3.1142028E-2,3.1966402E1,8.489432E1,1.8242819E1,5E0,7.093809E1,1.6889765E1,3.2236996E1,3.338155E1,6E0,1.2E1,1.2825824E-2,2.4736812E0,-7.070768E-2,1.1E1,-8.6779326E-2,-1.6237162E-2,2E0,-9.0930305E-2,3.3330143E1,-8.89776E-2,4.7212866E-1,7E0,4.5653608E-1,8E0,1.802708E-1,6.705859E1,1.8796282E1,1.02605015E-1,1.1622636E2,1.2204663E0,8.287139E1,5.491055E0,6.97526E-2,2.9769516E-2,-5.7526464E-3,-8.060419E-2,-2.6931837E-2,1.5672663E-2,5.6462057E-2,-9.120305E-2,7.525619E-2,5.5475403E-2,-1.664908E-2,7.13437E-2,-6.470862E-2,8.098403E-2,2.443937E-2,6.567226E-2,-9.084877E-2,-6.312029E-2,3.114985E-2,-2.7207432E-2,4.826996E-3,-4.8054855E-2,-6.3661195E-2,-8.9728676E-2,3.6020126E-2,-2.2429515E-2,6.2382728E-2,1.0715578E-2,-5.4795686E-3,7.594406E-2,-2.8245429E-2,-6.865885E-2,-7.242538E-2,9.357556E-3,-5.8281023E-2,6.748455E-2,4.6037786E-2,-7.3574916E-2,-1.5889272E-2,3.682092E-2,1.1046778E-2,-8.611749E-2,-8.68482E-2,-5.231042E-2,-8.2668506E-2,-6.2383503E-2,-8.994849E-2,-6.785094E-2],"split_indices":[8,9,9,1,9,6,8,2,6,6,6,8,8,1,9,9,7,8,9,8,1,0,2,2,8,9,9,2,4,2,8,8,6,9,9,2,2,6,6,0,1,0,6,0,0,6,0,2,0,9,6,9,6,4,9,9,4,8,1,8,1,0,0,0,0,0,0,0,0,0,0,0,0,0,0,0,0,0,0,0,0,0,0,0,0,0,0,0,0,0,0,0,0,0,0,0,0,0,0,0,0,0,0,0,0,0,0,0,0],"split_type":[0,0,0,0,0,0,0,0,0,0,0,0,0,0,0,0,0,0,0,0,0,0,0,0,0,0,0,0,0,0,0,0,0,0,0,0,0,0,0,0,0,0,0,0,0,0,0,0,0,0,0,0,0,0,0,0,0,0,0,0,0,0,0,0,0,0,0,0,0,0,0,0,0,0,0,0,0,0,0,0,0,0,0,0,0,0,0,0,0,0,0,0,0,0,0,0,0,0,0,0,0,0,0,0,0,0,0,0,0],"sum_hessian":[1.6531982E4,8.98648E3,7.5455015E3,8.6198E3,3.6668054E2,3.7219106E3,3.8235908E3,2.283706E3,6.336094E3,1.12115425E2,2.5456514E2,1.6598993E3,2.0620112E3,5.857276E2,3.2378633E3,1.2281769E3,1.055529E3,4.883819E3,1.4522753E3,7.615071E1,3.596471E1,2.0751436E2,4.7050774E1,7.66556E2,8.933433E2,1.120122E3,9.418894E2,2.4398283E2,3.4174475E2,5.147915E2,2.7230718E3,1.121287E3,1.0688993E2,8.903412E2,1.6518788E2,4.36016E3,5.236586E2,2.630557E2,1.1892196E3,6.993211E0,6.91575E1,9.4947605E0,2.646995E1,3.931554E1,7.7352324E0,6.339289E2,1.3262714E2,1.9311226E2,7.00231E2,6.109813E2,5.0914062E2,2.4138118E2,7.005082E2,2.2900636E2,1.4976466E1,1.1056257E2,2.3118219E2,5.0389534E1,4.6440198E2,3.809109E2,2.342161E3,5.4816187E2,5.731251E2,6.868555E1,3.820438E1,4.1651828E2,4.7382288E2,1.5120274E2,1.3985145E1,3.1437747E3,1.2163856E3,1.8572534E2,3.3793326E2,1.2744685E1,2.5031102E2,7.6242206E2,4.2679755E2,1.6220428E1,5.2937073E1,1.7727978E1,8.741973E0,8.368746E1,5.5024146E2,1.324199E2,6.069235E1,2.5884653E2,3.521348E2,3.0929575E2,1.9984488E2,1.7390433E2,6.747686E1,4.5520685E2,2.4530136E2,2.2328902E2,5.717345E0,6.979092E0,7.997374E0,1.1980409E1,9.858215E1,1.8327089E2,4.7911312E1,3.869841E1,1.1691124E1,3.6180328E2,1.0259871E2,3.4517545E2,3.5735462E1,2.315558E3,2.6602787E1],"tree_param":{"num_deleted":"0","num_feature":"10","num_nodes":"109","size_leaf_vector":"1"}},{"base_weights":[-3.739124E-5,8.814474E-1,-1.0695449E0,9.827604E-1,-1.4791212E0,-5.862058E-1,-1.5420862E0,4.2395106E-1,1.1832162E0,-8.3679247E-1,-1.69729E0,-1.3313417E0,1.2688796E-2,-8.9159733E-1,-1.653427E0,7.9652673E-1,-7.111843E-4,6.3709676E-1,1.23423E0,-1.1809913E0,1.03153875E-2,-1.7251728E-2,-1.7230034E0,-9.75363E-1,-1.6494942E0,3.6177674E-1,-5.260236E-1,-1.295279E0,-5.586411E-1,-1.1354469E0,-1.6881118E0,9.411578E-1,-7.6700205E-1,1.3492821E0,-8.3032556E-2,-2.0757587E-1,1.2670802E0,1.2964795E0,7.349249E-1,-6.7662936E-1,-1.3719561E0,-8.251695E-2,5.493615E-1,-8.810927E-2,-1.1323785E0,-8.1257147E-1,-8.730789E-2,-1.4792545E0,-1.7100244E0,-3.101594E-1,8.0483186E-1,3.8694084E-1,-8.2295376E-1,-1.4052244E0,3.0711383E-1,-9.084466E-1,1.1356709E-1,-6.097021E-2,-1.518261E0,-8.646085E-2,-1.5591631E0,2.6031572E-2,7.058784E-2,-6.731337E-2,2.2957034E-3,7.976225E-2,1.970843E-2,-1.9065758E-2,1.8121494E-2,-2.9340284E-3,-5.8921464E-2,7.212658E-2,-5.8613848E-2,7.0977055E-2,5.132717E-2,-1.4066103E-2,6.408507E-2,-5.5006193E-4,-8.2253E-2,-3.909376E-2,-8.068776E-2,-5.757609E-3,5.7424225E-2,-8.334818E-2,-5.516288E-3,1.2934606E-2,-4.8798017E-2,-4.614881E-2,-7.99258E-2,-8.5791074E-2,-4.1501116E-2,1.9970952E-2,-3.6697067E-2,5.879292E-2,1.2858212E-2,-5.6732744E-3,7.9056256E-2,-3.0524516E-2,-8.3114035E-2,-7.232138E-2,8.973806E-3,-2.6133848E-2,6.74332E-2,-2.6200654E-4,-7.101896E-2,-2.8434902E-2,3.6709994E-2,-8.032001E-2,3.5691407E-2,-7.817461E-2,-1.2124329E-2,-5.349589E-2,-8.227413E-2],"categories":[],"categories_nodes":[],"categories_segments":[],"categories_sizes":[],"default_left":[0,0,0,1,0,0,0,0,0,0,0,0,0,0,0,0,0,0,0,0,0,0,1,0,0,0,0,0,0,0,1,0,0,0,0,0,0,1,0,0,0,0,1,0,0,0,0,0,1,0,0,0,0,0,0,0,0,0,0,0,0,0,0,0,0,0,0,0,0,0,0,0,0,0,0,0,0,0,0,0,0,0,0,0,0,0,0,0,0,0,0,0,0,0,0,0,0,0,0,0,0,0,0,0,0,0,0,0,0,0,0,0,0],"id":3,"left_children":[1,3,5,7,9,11,13,15,17,19,21,23,25,27,29,31,33,35,37,39,41,-1,43,45,47,49,51,53,55,57,59,61,63,65,67,69,71,73,75,77,79,-1,81,-1,83,85,-1,87,89,91,93,95,97,99,101,103,105,107,109,-1,111,-1,-1,-1,-1,-1,-1,-1,-1,-1,-1,-1,-1,-1,-1,-1,-1,-1,-1,-1,-1,-1,-1,-1,-1,-1,-1,-1,-1,-1,-1,-1,-1,-1,-1,-1,-1,-1,-1,-1,-1,-1,-1,-1,-1,-1,-1,-1,-1,-1,-1,-1,-1],"loss_changes":[1.5500924E4,2.1569941E3,1.6956113E3,9.675E2,5.035608E1,1.6397787E3,2.702793E2,3.6138263E2,1.7622559E2,2.8185135E1,8.797668E0,1.8355981E2,3.8341614E2,7.317526E1,5.5390625E1,2.758332E2,1.1868218E2,2.9070752E2,1.7960938E2,5.465767E0,2.6495483E1,0E0,3.9768066E0,9.560919E1,6.0439453E0,3.6864566E2,2.1766669E2,4.4275208E1,7.165369E1,8.382767E1,1.2887695E1,2.1953345E2,4.892688E1,1.3590408E1,1.3403471E2,3.361613E1,1.3556448E2,1.7002832E2,3.600759E2,1.3310401E1,5.4301605E0,0E0,9.1810875E0,0E0,1.0451376E1,1.1271036E2,0E0,1.3809937E1,1.5339355E0,1.4835944E2,1.5114188E2,1.1824382E2,1.0669516E2,1.5569794E1,1.5221818E1,9.238373E1,4.4820206E1,6.686072E1,8.130768E0,0E0,2.9067627E1,0E0,0E0,0E0,0E0,0E0,0E0,0E0,0E0,0E0,0E0,0E0,0E0,0E0,0E0,0E0,0E0,0E0,0E0,0E0,0E0,0E0,0E0,0E0,0E0,0E0,0E0,0E0,0E0,0E0,0E0,0E0,0E0,0E0,0E0,0E0,0E0,0E0,0E0,0E0,0E0,0E0,0E0,0E0,0E0,0E0,0E0,0E0,0E0,0E0,0E0,0E0,0E0],"parents":[2147483647,0,0,1,1,2,2,3,3,4,4,5,5,6,6,7,7,8,8,9,9,10,10,11,11,12,12,13,13,14,14,15,15,16,16,17,17,18,18,19,19,20,20,22,22,23,23,24,24,25,25,26,26,27,27,28,28,29,29,30,30,31,31,32,32,33,33,34,34,35,35,36,36,37,37,38,38,39,39,40,40,42,42,44,44,45,45,47,47,48,48,49,49,50,50,51,51,52,52,53,53,54,54,55,55,56,56,57,57,58,58,60,60],"right_children":[2,4,6,8,10,12,14,16,18,20,22,24,26,28,30,32,34,36,38,40,42,-1,44,46,48,50,52,54,56,58,60,62,64,66,68,70,72,74,76,78,80,-1,82,-1,84,86,-1,88,90,92,94,96,98,100,102,104,106,108,110,-1,112,-1,-1,-1,-1,-1,-1,-1,-1,-1,-1,-1,-1,-1,-1,-1,-1,-1,-1,-1,-1,-1,-1,-1,-1,-1,-1,-1,-1,-1,-1,-1,-1,-1,-1,-1,-1,-1,-1,-1,-1,-1,-1,-1,-1,-1,-1,-1,-1,-1,-1,-1,-1],"split_conditions":[4.4630646E1,1.2944156E2,1.4429659E1,2.0118113E0,1.4474294E2,5E0,6.395293E1,3.2031883E1,-6.2E1,7E0,-3.8E1,1.0653964E2,1.07636826E2,1.0496317E0,3.2068806E1,7.194736E1,3.853084E-1,8E0,6E0,3.648141E0,4.669698E0,-1.7251728E-2,1.7478748E1,3.4027264E1,1.2352404E2,-1.67E2,4.7212866E-1,3.6392025E1,-3E1,-9.2E1,1.1502234E0,-6.1E1,1.0753579E2,3.3626827E1,8.156076E1,3.3626827E1,1.6889765E1,3.2236996E1,1.2E1,-3E0,3E0,-8.251695E-2,3.1213493E1,-8.810927E-2,5.548624E0,2E0,-8.730789E-2,4.7212866E-1,4.195961E0,4.7212866E-1,7E0,4.5653608E-1,3.309899E1,1.802708E-1,1.0922785E-1,5.6903336E1,1.7448335E0,7.170474E-1,3.2055523E1,-8.646085E-2,2.2508358E1,2.6031572E-2,7.058784E-2,-6.731337E-2,2.2957034E-3,7.976225E-2,1.970843E-2,-1.9065758E-2,1.8121494E-2,-2.9340284E-3,-5.8921464E-2,7.212658E-2,-5.8613848E-2,7.0977055E-2,5.132717E-2,-1.4066103E-2,6.408507E-2,-5.5006193E-4,-8.2253E-2,-3.909376E-2,-8.068776E-2,-5.757609E-3,5.7424225E-2,-8.334818E-2,-5.516288E-3,1.2934606E-2,-4.8798017E-2,-4.614881E-2,-7.99258E-2,-8.5791074E-2,-4.1501116E-2,1.9970952E-2,-3.6697067E-2,5.879292E-2,1.2858212E-2,-5.6732744E-3,7.9056256E-2,-3.0524516E-2,-8.3114035E-2,-7.232138E-2,8.973806E-3,-2.6133848E-2,6.74332E-2,-2.6200654E-4,-7.101896E-2,-2.8434902E-2,3.6709994E-2,-8.032001E-2,3.5691407E-2,-7.817461E-2,-1.2124329E-2,-5.349589E-2,-8.227413E-2],"split_indices":[8,9,9,1,9,6,8,2,3,6,3,8,8,1,2,9,9,6,6,8,1,0,1,2,8,3,9,2,3,3,1,3,9,8,9,8,9,2,6,3,6,0,2,0,8,6,0,9,1,9,6,9,2,4,4,9,1,1,2,0,9,0,0,0,0,0,0,0,0,0,0,0,0,0,0,0,0,0,0,0,0,0,0,0,0,0,0,0,0,0,0,0,0,0,0,0,0,0,0,0,0,0,0,0,0,0,0,0,0,0,0,0,0],"split_type":[0,0,0,0,0,0,0,0,0,0,0,0,0,0,0,0,0,0,0,0,0,0,0,0,0,0,0,0,0,0,0,0,0,0,0,0,0,0,0,0,0,0,0,0,0,0,0,0,0,0,0,0,0,0,0,0,0,0,0,0,0,0,0,0,0,0,0,0,0,0,0,0,0,0,0,0,0,0,0,0,0,0,0,0,0,0,0,0,0,0,0,0,0,0,0,0,0,0,0,0,0,0,0,0,0,0,0,0,0,0,0,0,0],"sum_hessian":[1.644014E4,9.012308E3,7.4278335E3,8.642027E3,3.7028036E2,3.6731755E3,3.754658E3,2.2825613E3,6.3594663E3,9.522232E1,2.7505804E2,1.6362817E3,2.0368939E3,5.5018805E2,3.20447E3,1.2155038E3,1.0670576E3,5.44616E2,5.81485E3,6.751384E1,2.7708477E1,5.474316E0,2.695837E2,7.743012E2,8.619805E2,1.2362881E3,8.0060583E2,2.4723982E2,3.029482E2,2.0340816E2,3.0010618E3,1.1130092E3,1.0249465E2,6.0374077E1,1.0066835E3,2.3288242E2,3.117336E2,5.168664E3,6.461861E2,1.9933598E1,4.7580246E1,6.2394195E0,2.1469057E1,2.5079323E2,1.8790499E1,6.4108765E2,1.3321356E2,2.3320027E2,6.287803E2,4.9128342E2,7.4500464E2,1.9632619E2,6.0427966E2,2.3153865E2,1.5701175E1,1.9912454E2,1.0382365E2,5.3806217E1,1.4960194E2,2.2656514E3,7.354103E2,5.889993E2,5.240098E2,5.9536922E1,4.295773E1,4.739413E1,1.2979947E1,6.031688E2,4.0351465E2,2.029243E2,2.9958118E1,2.9123602E2,2.0497585E1,3.5469924E3,1.6216716E3,2.261545E2,4.2003162E2,1.24742985E1,7.459298E0,1.5180717E1,3.239953E1,1.04829E1,1.0986157E1,1.1858872E1,6.9316263E0,8.468073E1,5.564069E2,4.286058E1,1.9033969E2,6.2360876E2,5.171491E0,1.8363214E2,3.0765125E2,4.4333228E2,3.016724E2,1.3893053E2,5.739566E1,4.8368765E2,1.20592E2,2.2581763E2,5.7210135E0,8.96279E0,6.738385E0,7.247026E1,1.2665428E2,4.9419292E1,5.4404358E1,1.7652298E1,3.6153915E1,1.4418607E2,5.415878E0,1.12474525E2,6.229357E2],"tree_param":{"num_deleted":"0","num_feature":"10","num_nodes":"113","size_leaf_vector":"1"}},{"base_weights":[-6.363882E-4,8.576918E-1,-1.0266454E0,9.544469E-1,-1.4236684E0,-5.8627164E-1,-1.4768772E0,1.116527E0,3.9449736E-1,-7.9046595E-1,-1.6543481E0,-1.2763236E0,-1.8615747E-2,-7.9894847E-1,-1.6016015E0,1.2160305E0,8.0976176E-1,-3.210007E-1,7.049176E-1,-1.0881295E0,7.7031806E-2,-1.6792367E0,-1.0494013E0,-9.257625E-1,-1.5792181E0,3.1533685E-1,-5.4318297E-1,-1.3425559E0,-5.9991294E-1,-1.3577111E0,-1.6402384E0,1.9787592E-1,1.2655822E0,1.4163637E0,7.0322627E-1,6.0080537E-3,-1.0573298E0,8.1131136E-1,-1.7110087E0,-1.2539098E0,-5.536415E-1,7.338099E-1,-7.933955E-2,-1.6928155E0,-4.2413395E-2,-1.2523609E-2,-7.598927E-2,-7.4853647E-1,-8.4426805E-2,-1.3016758E0,-8.0936946E-2,-3.985499E-1,7.577859E-1,-2.112747E-1,-1.2589177E0,3.2385644E-1,-1.6058763E0,-2.0173945E-1,-1.1443064E0,-9.415572E-2,-1.4963472E0,-1.5157539E0,-1.6594279E0,4.5939695E-2,-5.1059406E-2,6.52996E-2,-2.2765E-3,3.9874088E-2,7.78979E-2,1.3951601E-2,4.9136262E-2,-2.5816163E-2,4.989291E-2,-7.499484E-2,5.379983E-4,2.5718054E-2,5.8065053E-2,-2.0453583E-2,-9.196063E-2,-3.691705E-2,-8.306601E-2,1.54133905E-2,-5.3519737E-2,-0E0,5.3288933E-2,-4.4021707E-2,-8.531112E-2,1.04755685E-2,-4.4836856E-2,-3.9712932E-2,-8.090946E-2,8.113724E-3,-3.5802644E-2,5.5409808E-2,1.2577596E-2,-4.501317E-2,1.9447507E-2,1.6329363E-2,-6.840155E-2,-1.7949507E-2,4.7196817E-2,-8.291056E-2,-3.5319757E-2,-2.767161E-3,-8.527549E-2,-6.2662154E-2,1.5265562E-2,4.200702E-2,-7.959696E-2,-5.551927E-2,-8.104684E-2,-7.767488E-2,-5.55888E-2,-8.3661646E-2,-7.738253E-2],"categories":[],"categories_nodes":[],"categories_segments":[],"categories_sizes":[],"default_left":[0,0,0,0,0,0,0,0,0,0,0,0,0,0,0,0,0,0,0,1,1,0,0,0,0,0,0,0,0,0,0,0,1,0,0,0,0,0,0,0,0,0,0,0,0,0,0,0,0,0,0,0,0,0,0,0,0,0,0,0,0,0,0,0,0,0,0,0,0,0,0,0,0,0,0,0,0,0,0,0,0,0,0,0,0,0,0,0,0,0,0,0,0,0,0,0,0,0,0,0,0,0,0,0,0,0,0,0,0,0,0,0,0,0,0],"id":4,"left_children":[1,3,5,7,9,11,13,15,17,19,21,23,25,27,29,31,33,35,37,39,41,43,45,47,49,51,53,55,57,59,61,63,65,67,69,71,73,75,77,79,81,83,-1,85,-1,-1,-1,87,-1,89,-1,91,93,95,97,99,101,103,105,107,109,111,113,-1,-1,-1,-1,-1,-1,-1,-1,-1,-1,-1,-1,-1,-1,-1,-1,-1,-1,-1,-1,-1,-1,-1,-1,-1,-1,-1,-1,-1,-1,-1,-1,-1,-1,-1,-1,-1,-1,-1,-1,-1,-1,-1,-1,-1,-1,-1,-1,-1,-1,-1,-1],"loss_changes":[1.4406001E4,1.9673691E3,1.476313E3,7.749409E2,5.1432556E1,1.4760898E3,3.0995068E2,2.0107617E2,4.266832E2,2.5721329E1,1.9525757E0,1.7889185E2,3.6261118E2,6.1162506E1,2.6780273E1,2.5191699E2,1.0388159E2,1.4013043E2,3.455736E2,5.6625595E0,2.9613579E1,1.15979E0,4.4370203E0,1.0541858E2,7.592285E0,3.9977048E2,1.9087532E2,6.780069E1,9.121484E1,7.528546E1,3.5688477E0,2.060328E2,2.5284424E2,1.9711426E1,1.638493E2,2.0964612E2,8.474596E1,1.3264014E2,8.499908E0,1.0166E1,9.046899E0,4.829075E0,0E0,9.333496E-1,0E0,0E0,0E0,9.1657715E1,0E0,1.7579239E1,0E0,8.643271E1,1.381536E2,2.2843857E2,4.4633026E1,9.569818E0,4.8235474E0,5.3739277E1,2.8610992E1,6.2705166E1,1.6617737E1,3.6502686E0,6.538086E-1,0E0,0E0,0E0,0E0,0E0,0E0,0E0,0E0,0E0,0E0,0E0,0E0,0E0,0E0,0E0,0E0,0E0,0E0,0E0,0E0,0E0,0E0,0E0,0E0,0E0,0E0,0E0,0E0,0E0,0E0,0E0,0E0,0E0,0E0,0E0,0E0,0E0,0E0,0E0,0E0,0E0,0E0,0E0,0E0,0E0,0E0,0E0,0E0,0E0,0E0,0E0,0E0],"parents":[2147483647,0,0,1,1,2,2,3,3,4,4,5,5,6,6,7,7,8,8,9,9,10,10,11,11,12,12,13,13,14,14,15,15,16,16,17,17,18,18,19,19,20,20,21,21,22,22,23,23,24,24,25,25,26,26,27,27,28,28,29,29,30,30,31,31,32,32,33,33,34,34,35,35,36,36,37,37,38,38,39,39,40,40,41,41,43,43,47,47,49,49,51,51,52,52,53,53,54,54,55,55,56,56,57,57,58,58,59,59,60,60,61,61,62,62],"right_children":[2,4,6,8,10,12,14,16,18,20,22,24,26,28,30,32,34,36,38,40,42,44,46,48,50,52,54,56,58,60,62,64,66,68,70,72,74,76,78,80,82,84,-1,86,-1,-1,-1,88,-1,90,-1,92,94,96,98,100,102,104,106,108,110,112,114,-1,-1,-1,-1,-1,-1,-1,-1,-1,-1,-1,-1,-1,-1,-1,-1,-1,-1,-1,-1,-1,-1,-1,-1,-1,-1,-1,-1,-1,-1,-1,-1,-1,-1,-1,-1,-1,-1,-1,-1,-1,-1,-1,-1,-1,-1,-1,-1,-1,-1,-1,-1],"split_conditions":[4.3739464E1,1.2944156E2,1.5226037E1,2.4502613E1,1.4474294E2,5E0,6.395293E1,5E0,9.178E0,1.5719E1,1.9979669E-1,1.04481125E2,1.07636826E2,-4.7E1,2.2508358E1,-6.2E1,5.3635364E0,2.2962543E1,2.0806E1,6.319167E-2,3.1496815E1,7.9773602E0,1.7840924E2,3.3176113E1,4.7212866E-1,-1.69E2,8E0,2.0214895E1,1.6924E1,7.830128E1,8.489432E1,9.769902E0,1.8529E1,1.1756E1,4.148325E-2,-8.7E1,9.969727E1,8.7034966E1,3.1332645E1,2.6949648E-2,3.489034E1,-2.3E1,-7.933955E-2,-3.5E1,-4.2413395E-2,-1.2523609E-2,-7.598927E-2,2E0,-8.4426805E-2,1.2352404E2,-8.0936946E-2,4.7212866E-1,7E0,6E0,8.295E0,3.201066E-2,6.2883152E1,1.0178726E2,3.6404778E1,3.3561863E1,3.2637802E1,8.287139E1,-4.7E1,4.5939695E-2,-5.1059406E-2,6.52996E-2,-2.2765E-3,3.9874088E-2,7.78979E-2,1.3951601E-2,4.9136262E-2,-2.5816163E-2,4.989291E-2,-7.499484E-2,5.379983E-4,2.5718054E-2,5.8065053E-2,-2.0453583E-2,-9.196063E-2,-3.691705E-2,-8.306601E-2,1.54133905E-2,-5.3519737E-2,-0E0,5.3288933E-2,-4.4021707E-2,-8.531112E-2,1.04755685E-2,-4.4836856E-2,-3.9712932E-2,-8.090946E-2,8.113724E-3,-3.5802644E-2,5.5409808E-2,1.2577596E-2,-4.501317E-2,1.9447507E-2,1.6329363E-2,-6.840155E-2,-1.7949507E-2,4.7196817E-2,-8.291056E-2,-3.5319757E-2,-2.767161E-3,-8.527549E-2,-6.2662154E-2,1.5265562E-2,4.200702E-2,-7.959696E-2,-5.551927E-2,-8.104684E-2,-7.767488E-2,-5.55888E-2,-8.3661646E-2,-7.738253E-2],"split_indices":[8,9,9,8,9,6,8,6,0,0,4,8,8,3,9,3,9,9,0,4,2,7,9,2,9,3,6,9,0,8,8,9,0,0,4,3,9,9,2,4,2,3,0,3,0,0,0,6,0,8,0,9,6,6,0,4,8,9,2,2,2,8,3,0,0,0,0,0,0,0,0,0,0,0,0,0,0,0,0,0,0,0,0,0,0,0,0,0,0,0,0,0,0,0,0,0,0,0,0,0,0,0,0,0,0,0,0,0,0,0,0,0,0,0,0],"split_type":[0,0,0,0,0,0,0,0,0,0,0,0,0,0,0,0,0,0,0,0,0,0,0,0,0,0,0,0,0,0,0,0,0,0,0,0,0,0,0,0,0,0,0,0,0,0,0,0,0,0,0,0,0,0,0,0,0,0,0,0,0,0,0,0,0,0,0,0,0,0,0,0,0,0,0,0,0,0,0,0,0,0,0,0,0,0,0,0,0,0,0,0,0,0,0,0,0,0,0,0,0,0,0,0,0,0,0,0,0,0,0,0,0,0,0],"sum_hessian":[1.6356307E4,8.905937E3,7.4503706E3,8.544192E3,3.6174353E2,3.7676948E3,3.6826758E3,6.625297E3,1.9188956E3,9.789301E1,2.6385052E2,1.6998746E3,2.06782E3,5.735267E2,3.1091492E3,5.000142E3,1.625155E3,5.805077E2,1.338388E3,7.278077E1,2.5112244E1,2.5155977E2,1.2290755E1,7.899717E2,9.099029E2,1.2635933E3,8.042268E2,1.5203627E2,4.214904E2,4.3048688E2,2.6786624E3,2.3237991E2,4.767762E3,2.408047E2,1.3843503E3,4.025767E2,1.7793102E2,1.2826094E3,5.5778587E1,5.438062E1,1.8400152E1,1.8448814E1,6.663429E0,2.463762E2,5.1835546E0,5.2014194E0,7.089336E0,6.4274585E2,1.4722583E2,1.1796155E2,7.9194135E2,4.8344052E2,7.8015283E2,5.504166E2,2.5381024E2,2.0662819E1,1.3137344E2,2.4433571E2,1.7715468E2,4.2799988E1,3.876869E2,3.6914932E2,2.309513E3,1.4623138E2,8.614852E1,4.625286E3,1.4247577E2,4.620213E1,1.9460257E2,5.507841E2,8.335662E2,2.6395203E2,1.3862468E2,1.2558411E2,5.23469E1,6.9537274E2,5.8723663E2,5.4458313E0,5.0332756E1,2.5353737E1,2.9026882E1,6.975473E0,1.1424679E1,5.9775324E0,1.2471282E1,5.2034826E0,2.4117273E2,8.596084E1,5.5678503E2,4.6784504E1,7.117705E1,1.7481981E2,3.086207E2,4.6021194E2,3.1994086E2,2.5610474E2,2.9431186E2,1.615503E1,2.3765521E2,9.957345E0,1.0705473E1,1.2324777E2,8.125673E0,2.2366464E2,2.0671072E1,1.6496245E2,1.2192235E1,2.6587435E1,1.6212553E1,9.722185E1,2.9046503E2,3.347779E2,3.4371456E1,2.0424025E3,2.6711053E2],"tree_param":{"num_deleted":"0","num_feature":"10","num_nodes":"115","size_leaf_vector":"1"}},{"base_weights":[-1.6399507E-3,8.092596E-1,-9.910229E-1,9.076908E-1,-1.3187193E0,-5.5300355E-1,-1.4445157E0,3.0337512E-1,1.0672961E0,-7.1577346E-1,-1.6247442E0,-1.2263945E0,-6.656406E-3,-6.413652E-1,-1.5339565E0,5.647636E-1,-2.3649535E-1,6.0427797E-1,1.1195058E0,-1.2397708E0,-3.9884156E-1,-8.3288506E-2,-9.9263155E-1,-9.062005E-1,-1.5185512E0,1.029846E-1,-1.6231186E0,-1.2417597E0,-2.4265271E-1,-1.2705014E0,-1.5812421E0,7.253837E-1,-7.9792154E-1,-8.853326E-1,3.6694613E-1,-2.227395E-1,1.1273133E0,1.1817263E0,6.4284074E-1,-5.981182E-1,-1.6709254E0,-6.7317814E-1,2.0376621E-1,-7.748098E-2,2.0424938E-3,-7.470734E-1,-8.142556E-2,-1.2389599E0,-1.5784588E0,-2.6675835E-1,5.4970443E-1,-4.5949485E-2,-1.6456747E0,-1.3129684E0,-1.3366458E-2,-6.339072E-1,6.02295E-1,1.0178853E-1,-1.3387452E0,-1.6192598E0,-1.4481605E0,2.138202E-2,6.229197E-2,-1.6366735E-2,-8.054177E-2,-5.96369E-3,-6.080975E-2,-1.8569535E-2,4.8942264E-2,-3.178325E-2,1.8314764E-2,6.559568E-2,-5.030031E-2,6.572048E-2,4.6643477E-2,-1.3072932E-2,5.7743885E-2,-5.2427836E-2,2.508905E-2,-4.852618E-2,-9.009833E-2,-1.5550851E-2,-8.569473E-2,-3.3824112E-2,3.5591505E-2,1.2983379E-2,-4.5713156E-2,-6.757214E-2,-1.9448439E-2,-7.916511E-2,-3.6967844E-2,1.4546162E-2,-2.7893368E-2,3.946121E-2,-4.2215187E-2,-5.0313808E-2,-8.3729945E-2,-5.755747E-2,-8.288171E-2,4.295199E-2,-4.6972476E-2,-8.3119E-2,4.6698622E-2,-7.6083794E-2,5.1277973E-2,-7.3258184E-2,-4.8788168E-2,-3.4027405E-2,-8.1201546E-2,-6.001205E-2,-7.752278E-2],"categories":[],"categories_nodes":[],"categories_segments":[],"categories_sizes":[],"default_left":[0,0,0,1,0,0,0,0,0,0,1,0,0,0,0,0,0,0,0,0,0,0,0,0,0,0,0,0,0,0,1,0,0,0,1,0,0,1,0,0,0,0,1,0,0,0,0,0,1,0,0,0,0,0,0,0,0,0,0,0,0,0,0,0,0,0,0,0,0,0,0,0,0,0,0,0,0,0,0,0,0,0,0,0,0,0,0,0,0,0,0,0,0,0,0,0,0,0,0,0,0,0,0,0,0,0,0,0,0,0,0],"id":5,"left_children":[1,3,5,7,9,11,13,15,17,19,21,23,25,27,29,31,33,35,37,39,41,-1,43,45,47,49,51,53,55,57,59,61,63,65,67,69,71,73,75,77,79,81,83,-1,-1,85,-1,87,89,91,93,-1,95,97,-1,99,101,103,105,107,109,-1,-1,-1,-1,-1,-1,-1,-1,-1,-1,-1,-1,-1,-1,-1,-1,-1,-1,-1,-1,-1,-1,-1,-1,-1,-1,-1,-1,-1,-1,-1,-1,-1,-1,-1,-1,-1,-1,-1,-1,-1,-1,-1,-1,-1,-1,-1,-1,-1,-1],"loss_changes":[1.3001369E4,1.866582E3,1.4489419E3,8.206167E2,7.132086E1,1.3665532E3,2.5637012E2,2.513671E2,1.6193213E2,2.1691513E1,4.83667E0,1.5402832E2,3.6398444E2,8.599742E1,3.7887695E1,2.6318008E2,2.279718E2,2.965209E2,1.7849023E2,1.2641548E1,1.43108225E1,0E0,1.0864094E1,9.009186E1,1.2307495E1,3.177136E2,3.031311E-1,9.466873E0,7.2570076E1,4.6732666E1,1.1161133E1,1.6571252E2,4.783207E1,7.081215E1,1.3677722E2,6.496599E1,1.6662598E2,1.752041E2,3.2494138E2,1.1379713E1,6.659317E-1,2.1526955E1,1.2732611E1,0E0,0E0,1.1049063E2,0E0,1.4423279E1,1.4873047E0,1.7104474E2,2.915019E2,0E0,3.5861206E-1,5.2638397E0,0E0,6.915343E1,5.371408E1,3.8056763E1,2.0024963E1,8.134766E0,1.350415E1,0E0,0E0,0E0,0E0,0E0,0E0,0E0,0E0,0E0,0E0,0E0,0E0,0E0,0E0,0E0,0E0,0E0,0E0,0E0,0E0,0E0,0E0,0E0,0E0,0E0,0E0,0E0,0E0,0E0,0E0,0E0,0E0,0E0,0E0,0E0,0E0,0E0,0E0,0E0,0E0,0E0,0E0,0E0,0E0,0E0,0E0,0E0,0E0,0E0,0E0],"parents":[2147483647,0,0,1,1,2,2,3,3,4,4,5,5,6,6,7,7,8,8,9,9,10,10,11,11,12,12,13,13,14,14,15,15,16,16,17,17,18,18,19,19,20,20,22,22,23,23,24,24,25,25,26,26,27,27,28,28,29,29,30,30,31,31,32,32,33,33,34,34,35,35,36,36,37,37,38,38,39,39,40,40,41,41,42,42,45,45,47,47,48,48,49,49,50,50,52,52,53,53,55,55,56,56,57,57,58,58,59,59,60,60],"right_children":[2,4,6,8,10,12,14,16,18,20,22,24,26,28,30,32,34,36,38,40,42,-1,44,46,48,50,52,54,56,58,60,62,64,66,68,70,72,74,76,78,80,82,84,-1,-1,86,-1,88,90,92,94,-1,96,98,-1,100,102,104,106,108,110,-1,-1,-1,-1,-1,-1,-1,-1,-1,-1,-1,-1,-1,-1,-1,-1,-1,-1,-1,-1,-1,-1,-1,-1,-1,-1,-1,-1,-1,-1,-1,-1,-1,-1,-1,-1,-1,-1,-1,-1,-1,-1,-1,-1,-1,-1,-1,-1,-1,-1],"split_conditions":[4.4630646E1,1.2699281E2,1.5226037E1,1.722212E0,1.4474294E2,5E0,5.649914E1,3.2470055E1,-6.2E1,-2.1E1,1.7478748E1,1.0653964E2,3.338155E1,1.0496317E0,7.9939705E1,7.403205E1,7.194736E1,7E0,6E0,-3.4E1,6E0,-8.3288506E-2,5.548624E0,3.4027264E1,1.186518E2,-1.65E2,6.2013283E1,3.63645E1,3.584285E1,-8.8E1,1.2204663E0,-6.1E1,5E0,3.2978477E1,3.586999E1,7.4084125E0,1.7383278E1,3.211888E1,1.2E1,1.4964047E1,3E0,-3E0,3.0403831E1,-7.748098E-2,2.0424938E-3,2E0,-8.142556E-2,1.4903936E1,4.257527E0,4.7212866E-1,1.1410685E2,-4.5949485E-2,3.3485752E1,4E0,-1.3366458E-2,2.6520401E1,5.1774986E1,7.382394E-1,1.1314453E0,3.130507E1,1.2800264E2,2.138202E-2,6.229197E-2,-1.6366735E-2,-8.054177E-2,-5.96369E-3,-6.080975E-2,-1.8569535E-2,4.8942264E-2,-3.178325E-2,1.8314764E-2,6.559568E-2,-5.030031E-2,6.572048E-2,4.6643477E-2,-1.3072932E-2,5.7743885E-2,-5.2427836E-2,2.508905E-2,-4.852618E-2,-9.009833E-2,-1.5550851E-2,-8.569473E-2,-3.3824112E-2,3.5591505E-2,1.2983379E-2,-4.5713156E-2,-6.757214E-2,-1.9448439E-2,-7.916511E-2,-3.6967844E-2,1.4546162E-2,-2.7893368E-2,3.946121E-2,-4.2215187E-2,-5.0313808E-2,-8.3729945E-2,-5.755747E-2,-8.288171E-2,4.295199E-2,-4.6972476E-2,-8.3119E-2,4.6698622E-2,-7.6083794E-2,5.1277973E-2,-7.3258184E-2,-4.8788168E-2,-3.4027405E-2,-8.1201546E-2,-6.001205E-2,-7.752278E-2],"split_indices":[8,9,9,1,9,6,8,2,3,3,1,8,2,1,8,9,9,6,6,3,6,0,8,2,8,3,8,2,2,3,1,3,6,2,2,7,9,2,6,8,6,3,2,0,0,6,0,7,1,9,8,0,2,6,0,9,9,1,7,2,8,0,0,0,0,0,0,0,0,0,0,0,0,0,0,0,0,0,0,0,0,0,0,0,0,0,0,0,0,0,0,0,0,0,0,0,0,0,0,0,0,0,0,0,0,0,0,0,0,0,0],"split_type":[0,0,0,0,0,0,0,0,0,0,0,0,0,0,0,0,0,0,0,0,0,0,0,0,0,0,0,0,0,0,0,0,0,0,0,0,0,0,0,0,0,0,0,0,0,0,0,0,0,0,0,0,0,0,0,0,0,0,0,0,0,0,0,0,0,0,0,0,0,0,0,0,0,0,0,0,0,0,0,0,0,0,0,0,0,0,0,0,0,0,0,0,0,0,0,0,0,0,0,0,0,0,0,0,0,0,0,0,0,0,0],"sum_hessian":[1.6203297E4,8.904905E3,7.2983916E3,8.511807E3,3.9309924E2,3.7137737E3,3.584618E3,1.7791016E3,6.732705E3,1.3357964E2,2.5951962E2,1.6628402E3,2.0509336E3,3.6012244E2,3.2244954E3,1.1988129E3,5.8028876E2,6.8371375E2,6.048991E3,4.9127567E1,8.445206E1,2.4201851E2,1.7501102E1,7.9547266E2,8.673675E2,1.9214784E3,1.2945514E2,1.4276976E2,2.1735268E2,4.9523508E2,2.7292603E3,1.0728918E3,1.2592098E2,2.7948123E2,3.0080753E2,2.6503165E2,4.186821E2,5.349072E3,6.999196E2,2.07967E1,2.833087E1,5.806628E1,2.638578E1,1.1110511E1,6.3905926E0,6.536454E2,1.4182726E2,1.5717485E2,7.101927E2,1.0514165E3,8.700618E2,5.4515357E0,1.240036E2,1.3262764E2,1.01421175E1,1.4881277E2,6.8539894E1,2.3368597E1,4.7186646E2,2.113556E3,6.157045E2,6.837466E2,3.8914526E2,8.07192E1,4.520178E1,8.480097E1,1.9468028E2,1.3642384E2,1.6438367E2,1.558607E2,1.0917096E2,3.8573557E2,3.2946545E1,3.4858384E3,1.8632332E3,2.5314276E2,4.4677686E2,1.4851999E1,5.9447E0,5.9102983E0,2.242057E1,4.411095E1,1.3955329E1,9.462745E0,1.6923037E1,9.292738E1,5.60718E2,1.3818117E2,1.8993673E1,7.0511664E2,5.076052E0,3.6048584E2,6.9093066E2,7.4291846E2,1.2714338E2,7.065306E0,1.169383E2,9.340461E1,3.9223022E1,2.491819E1,1.2389459E2,8.204754E0,6.033514E1,8.200784E0,1.5167814E1,3.4752087E2,1.2434557E2,1.1520187E1,2.1020356E3,1.8384732E2,4.3185724E2],"tree_param":{"num_deleted":"0","num_feature":"10","num_nodes":"111","size_leaf_vector":"1"}},{"base_weights":[7.3419856E-3,7.9001206E-1,-9.410509E-1,8.832262E-1,-1.1840011E0,-5.3341097E-1,-1.3617734E0,1.044752E0,3.624308E-1,-5.6820023E-1,-1.5242963E0,-1.1847302E0,-1.2513319E-2,-6.6500396E-1,-1.4943566E0,1.0688975E0,-1.7638248E-1,-2.4401036E-1,6.440974E-1,-1.1863744E0,5.404871E-2,-1.283266E0,-8.088091E-2,-8.711199E-1,-1.4738513E0,-1.1162778E0,1.3564278E-1,-8.9970434E-1,-4.3782063E-2,-1.2452941E0,-1.5370716E0,1.1046337E0,2.949675E-1,5.389454E-1,-9.7969395E-1,4.5176458E-2,-9.081401E-1,-5.084347E-1,9.054891E-1,-1.3856536E0,4.142172E-3,-6.842543E-2,3.8347727E-1,-1.4847707E0,-6.709232E-1,-7.1881896E-1,-7.902293E-2,-1.2749194E0,-1.5452701E0,5.972587E-2,-1.3603185E0,-1.4242897E0,2.0357047E-1,-9.7254133E-1,3.1954464E-1,-5.220125E-1,1.0545176E0,-6.416133E-1,-1.477507E0,-1.4004467E0,-1.558391E0,5.9688624E-2,3.9770495E-2,6.740436E-2,-2.5203675E-3,5.7823565E-2,-9.067193E-3,-6.2774464E-2,-7.7473E-5,-1.0103691E-2,3.5410058E-2,5.3843733E-2,-5.5830687E-2,-2.8363948E-3,-6.882555E-2,4.7626663E-2,-6.264002E-2,-8.743951E-2,-5.6585897E-2,-6.658291E-3,4.8877418E-2,-4.6856742E-2,-8.0491595E-2,-7.411482E-2,-3.6674521E-3,-6.919082E-2,-2.577954E-2,-3.5398256E-2,-6.9859765E-2,-7.753764E-2,-3.7272412E-2,-1.47482455E-2,8.23965E-2,-2.4600528E-2,-7.360411E-2,-9.2324E-2,-3.706666E-2,2.2705723E-2,-1.4533591E-2,-4.127956E-2,-7.235469E-2,-3.4449343E-2,4.294432E-2,7.897021E-2,-3.7899513E-2,6.1342437E-2,-3.974621E-3,5.7672323E-3,-8.085191E-2,-8.594634E-3,-7.493287E-2,-6.273713E-2,-7.5802945E-2,-7.823547E-2,-5.416557E-2],"categories":[],"categories_nodes":[],"categories_segments":[],"categories_sizes":[],"default_left":[0,0,0,0,0,0,0,0,0,0,1,0,1,0,0,1,0,0,0,0,0,0,0,0,0,0,0,0,0,0,0,0,0,0,0,0,0,0,0,0,0,0,0,0,0,0,0,0,1,0,0,0,0,0,0,0,0,0,0,0,1,0,0,0,0,0,0,0,0,0,0,0,0,0,0,0,0,0,0,0,0,0,0,0,0,0,0,0,0,0,0,0,0,0,0,0,0,0,0,0,0,0,0,0,0,0,0,0,0,0,0,0,0,0,0],"id":6,"left_children":[1,3,5,7,9,11,13,15,17,19,21,23,25,27,29,31,33,35,37,39,41,43,-1,45,47,49,51,53,55,57,59,61,63,65,67,69,71,73,75,77,-1,-1,79,81,83,85,-1,87,89,91,93,95,97,99,101,103,105,107,109,111,113,-1,-1,-1,-1,-1,-1,-1,-1,-1,-1,-1,-1,-1,-1,-1,-1,-1,-1,-1,-1,-1,-1,-1,-1,-1,-1,-1,-1,-1,-1,-1,-1,-1,-1,-1,-1,-1,-1,-1,-1,-1,-1,-1,-1,-1,-1,-1,-1,-1,-1,-1,-1,-1,-1],"loss_changes":[1.1902855E4,1.6175854E3,1.2425093E3,7.052554E2,8.201825E1,1.2497705E3,3.2831543E2,1.8907178E2,3.3974457E2,5.511847E1,3.3630981E0,1.4691089E2,3.3517255E2,8.3288605E1,2.9680664E1,1.7319922E2,7.236146E1,1.21326385E2,4.0954218E2,1.8398857E1,3.41943E1,8.193733E0,0E0,8.3748535E1,9.826294E0,6.9825806E1,1.9159195E2,3.7240143E1,8.351681E1,6.1108704E1,4.956543E0,1.6427588E2,1.0154163E2,2.9959145E1,1.5860767E1,7.2401955E1,8.048749E1,9.842655E1,1.13581055E2,3.4646835E0,0E0,0E0,1.8429245E1,2.099762E0,9.8305855E0,8.7015686E1,0E0,1.4791443E1,1.3353271E0,2.4603897E1,1.8584656E1,2.012648E1,2.1463055E2,2.5916443E1,1.3704444E1,5.608217E1,9.634541E0,9.2842285E1,8.409485E0,3.8017578E0,4.6396484E0,0E0,0E0,0E0,0E0,0E0,0E0,0E0,0E0,0E0,0E0,0E0,0E0,0E0,0E0,0E0,0E0,0E0,0E0,0E0,0E0,0E0,0E0,0E0,0E0,0E0,0E0,0E0,0E0,0E0,0E0,0E0,0E0,0E0,0E0,0E0,0E0,0E0,0E0,0E0,0E0,0E0,0E0,0E0,0E0,0E0,0E0,0E0,0E0,0E0,0E0,0E0,0E0,0E0,0E0],"parents":[2147483647,0,0,1,1,2,2,3,3,4,4,5,5,6,6,7,7,8,8,9,9,10,10,11,11,12,12,13,13,14,14,15,15,16,16,17,17,18,18,19,19,20,20,21,21,23,23,24,24,25,25,26,26,27,27,28,28,29,29,30,30,31,31,32,32,33,33,34,34,35,35,36,36,37,37,38,38,39,39,42,42,43,43,44,44,45,45,47,47,48,48,49,49,50,50,51,51,52,52,53,53,54,54,55,55,56,56,57,57,58,58,59,59,60,60],"right_children":[2,4,6,8,10,12,14,16,18,20,22,24,26,28,30,32,34,36,38,40,42,44,-1,46,48,50,52,54,56,58,60,62,64,66,68,70,72,74,76,78,-1,-1,80,82,84,86,-1,88,90,92,94,96,98,100,102,104,106,108,110,112,114,-1,-1,-1,-1,-1,-1,-1,-1,-1,-1,-1,-1,-1,-1,-1,-1,-1,-1,-1,-1,-1,-1,-1,-1,-1,-1,-1,-1,-1,-1,-1,-1,-1,-1,-1,-1,-1,-1,-1,-1,-1,-1,-1,-1,-1,-1,-1,-1,-1,-1,-1,-1,-1,-1],"split_conditions":[4.3739464E1,1.2699281E2,1.5226037E1,2.3927532E1,1.4474294E2,5E0,6.395293E1,1.4208496E1,9.178E0,1.198E1,2.9173426E1,1.0653964E2,6.1402243E-1,1.7002665E0,2.2962543E1,1.8529E1,3.2263218E1,2.520211E1,1.0734541E0,1.6948814E1,4.4283004E0,6E0,-8.088091E-2,1.1417E1,1.2352404E2,4.6135718E-1,6.769E0,3.63778E1,3.584285E1,3.2650555E1,8.489432E1,5E0,3.0792935E0,2.2321916E0,9.790365E1,1.1690571E1,3.028E0,1.8061E1,2.0629E1,1.323623E2,4.142172E-3,-6.842543E-2,1.5816E1,1.5440881E2,5.2415285E0,4.851E0,-7.902293E-2,4.7212866E-1,4.195961E0,4.5653608E-1,8.549E0,3.2068806E1,8E0,1.8795E1,5.5634964E1,2.0214895E1,5.3735477E1,1.1755832E2,4.9171704E-3,1.1096E1,5.032459E0,5.9688624E-2,3.9770495E-2,6.740436E-2,-2.5203675E-3,5.7823565E-2,-9.067193E-3,-6.2774464E-2,-7.7473E-5,-1.0103691E-2,3.5410058E-2,5.3843733E-2,-5.5830687E-2,-2.8363948E-3,-6.882555E-2,4.7626663E-2,-6.264002E-2,-8.743951E-2,-5.6585897E-2,-6.658291E-3,4.8877418E-2,-4.6856742E-2,-8.0491595E-2,-7.411482E-2,-3.6674521E-3,-6.919082E-2,-2.577954E-2,-3.5398256E-2,-6.9859765E-2,-7.753764E-2,-3.7272412E-2,-1.47482455E-2,8.23965E-2,-2.4600528E-2,-7.360411E-2,-9.2324E-2,-3.706666E-2,2.2705723E-2,-1.4533591E-2,-4.127956E-2,-7.235469E-2,-3.4449343E-2,4.294432E-2,7.897021E-2,-3.7899513E-2,6.1342437E-2,-3.974621E-3,5.7672323E-3,-8.085191E-2,-8.594634E-3,-7.493287E-2,-6.273713E-2,-7.5802945E-2,-7.823547E-2,-5.416557E-2],"split_indices":[8,9,9,8,9,6,8,1,0,0,2,8,1,1,9,0,2,9,1,8,1,6,0,0,8,9,0,2,2,2,8,6,8,8,9,9,0,0,0,9,0,0,0,9,8,0,0,9,1,9,0,2,6,0,9,9,8,8,4,0,1,0,0,0,0,0,0,0,0,0,0,0,0,0,0,0,0,0,0,0,0,0,0,0,0,0,0,0,0,0,0,0,0,0,0,0,0,0,0,0,0,0,0,0,0,0,0,0,0,0,0,0,0,0,0],"split_type":[0,0,0,0,0,0,0,0,0,0,0,0,0,0,0,0,0,0,0,0,0,0,0,0,0,0,0,0,0,0,0,0,0,0,0,0,0,0,0,0,0,0,0,0,0,0,0,0,0,0,0,0,0,0,0,0,0,0,0,0,0,0,0,0,0,0,0,0,0,0,0,0,0,0,0,0,0,0,0,0,0,0,0,0,0,0,0,0,0,0,0,0,0,0,0,0,0,0,0,0,0,0,0,0,0,0,0,0,0,0,0,0,0,0,0],"sum_hessian":[1.6033579E4,8.784424E3,7.2491553E3,8.388898E3,3.9552588E2,3.6830938E3,3.5660615E3,6.4020815E3,1.9868168E3,1.4183101E2,2.5369487E2,1.6360035E3,2.0470902E3,5.7116583E2,2.9948958E3,6.27815E3,1.2393127E2,6.300559E2,1.3567609E3,7.07743E1,7.105672E1,7.5225685E1,1.7846918E2,7.868569E2,8.4914667E2,2.4156544E2,1.8055248E3,4.1410565E2,1.5706021E2,4.4319687E2,2.5516987E3,6.000519E3,2.7763086E2,6.5663895E1,5.826737E1,4.3947397E2,1.9058192E2,2.5057857E2,1.1061824E3,6.1158833E1,9.615462E0,1.2710737E1,5.834598E1,5.5405315E1,1.982037E1,6.4954785E2,1.3730902E2,2.2966974E2,6.194769E2,4.157342E1,1.9999202E2,7.444667E1,1.7310781E3,3.9103015E2,2.307548E1,1.0984596E2,4.7214245E1,1.2428596E2,3.189109E2,3.5406387E2,2.197635E3,4.6553555E3,1.345164E3,6.7918755E1,2.0971211E2,3.510262E1,3.0561277E1,4.515094E1,1.3116428E1,3.204999E2,1.18974075E2,1.7671806E1,1.7291011E2,1.6559245E2,8.498612E1,1.0831774E3,2.3004984E1,2.2583342E1,3.8575493E1,3.1531574E1,2.6814407E1,1.2028074E1,4.3377243E1,7.707469E0,1.2112902E1,1.5056665E2,4.989812E2,4.2095272E1,1.8757448E2,6.1420276E2,5.2741857E0,3.4598022E1,6.9754004E0,2.3524412E1,1.764676E2,4.4863102E1,2.9583569E1,1.1489365E3,5.821416E2,3.0082654E2,9.020363E1,7.879149E0,1.519633E1,1.047225E1,9.937371E1,4.0991276E1,6.2229705E0,7.0418434E1,5.3867516E1,5.3047533E0,3.1360614E2,1.6227263E2,1.9179123E2,2.1663198E3,3.131514E1],"tree_param":{"num_deleted":"0","num_feature":"10","num_nodes":"115","size_leaf_vector":"1"}},{"base_weights":[-4.968435E-3,7.6817966E-1,-8.89774E-1,8.525546E-1,-1.2876651E0,-4.8991182E-1,-1.3050045E0,9.860947E-1,3.715149E-1,-7.9654294E-1,-1.4954091E0,-1.1170404E0,4.586085E-3,-6.4607155E-1,-1.4529017E0,1.0220072E0,2.0706111E-1,-1.916537E-1,6.249881E-1,-9.133252E-1,3.1798E-2,-1.5506517E0,-1.2322061E0,-7.7942157E-1,-1.4230081E0,3.0553302E-1,-4.929687E-1,-1.2776699E0,-4.3328458E-1,-1.2036495E0,-1.4954251E0,4.8202702E-1,1.0795766E0,-5.37142E-1,1.0348531E0,1.1116206E-1,-8.909088E-1,7.214278E-1,-1.6082186E0,-1.0734537E0,-2.8793108E-1,-4.4070255E-2,-7.844679E-2,-2.9468143E-3,-1.3739681E0,-6.312712E-1,-7.6826915E-2,-1.214282E0,-7.537859E-2,-3.7252358E-1,6.342637E-1,-1.7981723E-1,-1.2051523E0,1.4649715E-1,-1.4758205E0,-1.994328E-2,-9.162381E-1,-8.1652987E-1,-1.5117197E0,-1.4335886E0,-7.6541536E-2,5.9035387E-2,-3.347324E-2,5.6907255E-2,2.88526E-2,-4.8912216E-2,6.4690895E-3,5.5293333E-2,-3.5969277E-3,-2.1295056E-2,4.634561E-2,4.211381E-2,-5.8872093E-2,2.4412764E-2,5.005883E-2,-3.722264E-2,-8.6838365E-2,-2.6235014E-2,-6.544707E-2,-7.425187E-2,1.3833894E-2,-3.0169098E-2,-7.72376E-2,1.4929637E-2,-3.9019655E-2,-2.7489264E-2,-6.81278E-2,7.964224E-3,-3.3703666E-2,4.0649842E-2,-3.9432296E-3,-7.48746E-2,6.5383962E-3,8.312695E-3,-6.440546E-2,-3.407897E-2,4.4981852E-2,-7.7704355E-2,-5.3933013E-2,-4.6569813E-2,1.6225128E-2,-3.2783072E-2,-6.8636954E-2,-6.3343324E-2,-4.938687E-3,-7.715305E-2,-5.397747E-2,-6.146453E-2,-7.382809E-2],"categories":[],"categories_nodes":[],"categories_segments":[],"categories_sizes":[],"default_left":[0,0,0,0,0,0,0,1,0,0,0,0,0,0,0,0,0,0,0,0,0,0,0,0,0,0,0,0,0,0,0,0,0,0,0,0,0,0,0,0,0,0,0,0,0,0,0,0,0,0,0,0,0,0,0,0,0,0,0,0,0,0,0,0,0,0,0,0,0,0,0,0,0,0,0,0,0,0,0,0,0,0,0,0,0,0,0,0,0,0,0,0,0,0,0,0,0,0,0,0,0,0,0,0,0,0,0,0,0],"id":7,"left_children":[1,3,5,7,9,11,13,15,17,19,21,23,25,27,29,31,33,35,37,39,-1,41,43,45,47,49,51,53,55,57,59,61,63,65,67,69,71,73,75,77,79,-1,-1,-1,81,83,-1,85,-1,87,89,91,93,95,97,99,101,103,105,107,-1,-1,-1,-1,-1,-1,-1,-1,-1,-1,-1,-1,-1,-1,-1,-1,-1,-1,-1,-1,-1,-1,-1,-1,-1,-1,-1,-1,-1,-1,-1,-1,-1,-1,-1,-1,-1,-1,-1,-1,-1,-1,-1,-1,-1,-1,-1,-1,-1],"loss_changes":[1.0843642E4,1.4684277E3,1.2264995E3,5.215288E2,3.264142E1,1.1684309E3,3.5217725E2,1.7759814E2,2.5247722E2,1.7592316E1,1.2036133E0,1.7025684E2,3.1567944E2,8.885181E1,2.93042E1,1.8830664E2,1.7411055E2,1.1648089E2,2.6366852E2,9.002785E0,0E0,6.807251E-1,7.370117E0,8.7654175E1,1.3253174E1,2.9311615E2,1.7683318E2,4.7569885E1,9.973663E1,5.0633423E1,3.0351562E0,4.7363562E2,1.6083105E2,4.399006E1,1.0694443E1,1.6870966E2,8.355884E1,7.5651184E1,4.093033E0,8.772408E0,1.45403385E1,0E0,0E0,0E0,4.198448E0,9.238504E1,0E0,2.4314789E1,0E0,6.903958E1,1.12980896E2,2.2669498E2,2.7900879E1,1.3910119E1,2.631195E0,8.53319E1,2.6319824E1,6.306369E1,1.34906E0,6.130127E0,0E0,0E0,0E0,0E0,0E0,0E0,0E0,0E0,0E0,0E0,0E0,0E0,0E0,0E0,0E0,0E0,0E0,0E0,0E0,0E0,0E0,0E0,0E0,0E0,0E0,0E0,0E0,0E0,0E0,0E0,0E0,0E0,0E0,0E0,0E0,0E0,0E0,0E0,0E0,0E0,0E0,0E0,0E0,0E0,0E0,0E0,0E0,0E0,0E0],"parents":[2147483647,0,0,1,1,2,2,3,3,4,4,5,5,6,6,7,7,8,8,9,9,10,10,11,11,12,12,13,13,14,14,15,15,16,16,17,17,18,18,19,19,21,21,22,22,23,23,24,24,25,25,26,26,27,27,28,28,29,29,30,30,31,31,32,32,33,33,34,34,35,35,36,36,37,37,38,38,39,39,40,40,44,44,45,45,47,47,49,49,50,50,51,51,52,52,53,53,54,54,55,55,56,56,57,57,58,58,59,59],"right_children":[2,4,6,8,10,12,14,16,18,20,22,24,26,28,30,32,34,36,38,40,-1,42,44,46,48,50,52,54,56,58,60,62,64,66,68,70,72,74,76,78,80,-1,-1,-1,82,84,-1,86,-1,88,90,92,94,96,98,100,102,104,106,108,-1,-1,-1,-1,-1,-1,-1,-1,-1,-1,-1,-1,-1,-1,-1,-1,-1,-1,-1,-1,-1,-1,-1,-1,-1,-1,-1,-1,-1,-1,-1,-1,-1,-1,-1,-1,-1,-1,-1,-1,-1,-1,-1,-1,-1,-1,-1,-1,-1],"split_conditions":[4.119856E1,1.2944156E2,1.5226037E1,2.3927532E1,1.4935365E2,5E0,6.395293E1,1.8529E1,9.103E0,2.0061E1,6E0,1.04481125E2,1.07636826E2,-4.7E1,2.2962543E1,-6.2E1,2.359683E0,2.5707716E1,2.0806E1,1E1,3.1798E-2,-3.3E1,8E0,1.1544E1,1.2352404E2,-1.75E2,8E0,2.0214895E1,1.6479E1,1.1755832E2,1.2485E1,7.8285427E0,6E0,7.606063E1,1.0659392E2,-8.7E1,3.603E0,8.814657E1,2.5769659E1,6.151E0,-2E1,-4.4070255E-2,-7.844679E-2,-2.9468143E-3,1.6613731E2,2E0,-7.6826915E-2,4.7212866E-1,-7.537859E-2,4.7212866E-1,1.4699E1,8.234E0,8.295E0,3.201066E-2,8.254177E1,3.683557E-2,1.9221E1,5E0,1.3654068E-1,8.489432E1,-7.6541536E-2,5.9035387E-2,-3.347324E-2,5.6907255E-2,2.88526E-2,-4.8912216E-2,6.4690895E-3,5.5293333E-2,-3.5969277E-3,-2.1295056E-2,4.634561E-2,4.211381E-2,-5.8872093E-2,2.4412764E-2,5.005883E-2,-3.722264E-2,-8.6838365E-2,-2.6235014E-2,-6.544707E-2,-7.425187E-2,1.3833894E-2,-3.0169098E-2,-7.72376E-2,1.4929637E-2,-3.9019655E-2,-2.7489264E-2,-6.81278E-2,7.964224E-3,-3.3703666E-2,4.0649842E-2,-3.9432296E-3,-7.48746E-2,6.5383962E-3,8.312695E-3,-6.440546E-2,-3.407897E-2,4.4981852E-2,-7.7704355E-2,-5.3933013E-2,-4.6569813E-2,1.6225128E-2,-3.2783072E-2,-6.8636954E-2,-6.3343324E-2,-4.938687E-3,-7.715305E-2,-5.397747E-2,-6.146453E-2,-7.382809E-2],"split_indices":[8,9,9,8,9,6,8,0,0,0,6,8,8,3,9,3,7,9,0,6,0,3,6,0,8,3,6,9,0,8,0,9,6,9,9,3,0,9,8,0,3,0,0,0,9,6,0,9,0,9,0,0,0,4,9,4,0,6,4,8,0,0,0,0,0,0,0,0,0,0,0,0,0,0,0,0,0,0,0,0,0,0,0,0,0,0,0,0,0,0,0,0,0,0,0,0,0,0,0,0,0,0,0,0,0,0,0,0,0],"split_type":[0,0,0,0,0,0,0,0,0,0,0,0,0,0,0,0,0,0,0,0,0,0,0,0,0,0,0,0,0,0,0,0,0,0,0,0,0,0,0,0,0,0,0,0,0,0,0,0,0,0,0,0,0,0,0,0,0,0,0,0,0,0,0,0,0,0,0,0,0,0,0,0,0,0,0,0,0,0,0,0,0,0,0,0,0,0,0,0,0,0,0,0,0,0,0,0,0,0,0,0,0,0,0,0,0,0,0,0,0],"sum_hessian":[1.5849271E4,8.458343E3,7.3909287E3,8.1254946E3,3.3284863E2,3.766374E3,3.6245547E3,6.3589473E3,1.766547E3,1.0052221E2,2.3232643E2,1.660037E3,2.106337E3,6.6551227E2,2.9590425E3,6.078304E3,2.8064307E2,5.4826263E2,1.2182843E3,9.334469E1,7.1775227E0,1.8766649E2,4.4659935E1,7.9104047E2,8.689965E2,1.3128463E3,7.9349066E2,1.66331E2,4.991813E2,4.3586533E2,2.5231772E3,5.866685E2,5.4916357E3,1.4790424E2,1.3273883E2,3.8307025E2,1.6519238E2,1.1685432E3,4.974111E1,7.3618706E1,1.9725979E1,6.4448047E0,1.8122168E2,5.043056E0,3.961688E1,6.6322784E2,1.27812584E2,2.553256E2,6.136709E2,4.2852054E2,8.8432574E2,5.521151E2,2.413755E2,2.0285944E1,1.4604504E2,2.696482E2,2.2953311E2,1.9491322E2,2.4095209E2,9.3481683E2,1.5883604E3,3.6516312E2,2.2150539E2,4.9170923E3,5.745434E2,8.881154E1,5.9092705E1,1.2482128E2,7.917549E0,2.3120667E2,1.5186359E2,2.3110819E1,1.4208157E2,6.3901917E2,5.2952405E2,7.4242177E0,4.231689E1,2.3202673E1,5.0416035E1,5.856245E0,1.3869734E1,8.115924E0,3.1500956E1,9.143059E1,5.717973E2,4.756104E1,2.0776456E2,1.5511047E2,2.734101E2,7.071029E2,1.7722285E2,1.046466E2,4.4746854E2,1.3642057E1,2.2773346E2,9.644292E0,1.0641651E1,1.1935879E2,2.6686264E1,7.3566635E1,1.9608156E2,1.4781418E2,8.1718925E1,1.19212326E2,7.57009E1,2.2204723E2,1.8904871E1,1.6801112E2,7.668057E2],"tree_param":{"num_deleted":"0","num_feature":"10","num_nodes":"109","size_leaf_vector":"1"}},{"base_weights":[9.39433E-3,-6.629544E-1,6.805914E-1,-1.765584E-1,-1.184531E0,7.5412893E-1,-1.1612383E0,-7.0945874E-2,-1.0380894E0,-1.337936E0,-3.325274E-1,2.608527E-1,1.0044413E0,-5.9983516E-1,-1.4400827E0,-5.1344913E-1,1.3333598E-1,1.2932447E0,-1.1646756E0,-9.3514436E-1,-1.4681904E0,-1.3270116E-1,-7.8433216E-2,7.0530224E-1,-6.645254E-1,7.420483E-1,1.1280557E0,-9.1012365E-1,4.9379495E-1,-9.8684657E-1,-1.4700419E0,-1.0707067E0,-1.3821325E-1,3.138471E-1,-5.5761E-1,3.440249E-2,1.4688139E0,-1.4200302E0,-3.803912E-1,-5.755397E-1,-1.2617152E0,-1.4863302E0,-1.0763056E0,-9.8821104E-1,3.215213E-1,8.293056E-1,-1.3684973E0,5.711464E-2,-1.2722079E0,1.0086018E0,3.7897092E-1,1.1712288E0,2.2590499E-1,-1.1163317E0,-3.6807707E-1,1.0848204E0,-1.54354265E-2,-4.6297144E-3,-7.173734E-2,-7.436996E-2,-3.5044182E-2,9.608562E-3,-5.9982087E-2,1.4877962E-2,-4.448484E-2,-3.3498984E-2,2.20813E-2,2.8183428E-3,-6.013253E-2,8.765486E-2,4.622345E-2,-7.376104E-2,-2.8903628E-2,5.195463E-3,-5.8018774E-2,-4.217295E-2,1.1376296E-2,-6.593641E-2,-3.5559263E-2,-6.625183E-2,-7.463925E-2,-6.484001E-2,-1.7593456E-2,-5.5333406E-2,1.4252046E-2,-4.8468504E-2,2.5999961E-2,1.884474E-2,6.0410287E-2,-7.9086475E-2,1.5813975E-2,1.2905719E-2,-5.898387E-2,-3.5957173E-2,-6.802901E-2,6.324606E-2,-5.979939E-2,-3.766253E-2,4.691679E-2,6.062589E-2,4.1158456E-2,-2.2160769E-2,4.6135746E-2,-1.630686E-2,-6.266647E-2,1.911482E-2,-4.1380987E-2,2.6080359E-2,7.4952744E-2],"categories":[],"categories_nodes":[],"categories_segments":[],"categories_sizes":[],"default_left":[1,0,0,0,0,0,0,0,1,1,0,0,0,0,0,0,0,0,0,0,0,0,0,0,0,0,1,0,1,0,1,0,0,0,0,0,0,0,0,0,0,0,0,1,1,0,0,1,0,0,0,0,0,0,0,0,0,0,0,0,0,0,0,0,0,0,0,0,0,0,0,0,0,0,0,0,0,0,0,0,0,0,0,0,0,0,0,0,0,0,0,0,0,0,0,0,0,0,0,0,0,0,0,0,0,0,0,0,0],"id":8,"left_children":[1,3,5,7,9,11,13,15,17,19,21,23,25,27,29,31,33,35,37,39,41,43,-1,45,47,49,51,53,55,57,59,61,63,65,67,-1,69,71,73,75,77,79,81,83,85,87,89,91,93,95,97,99,101,103,105,107,-1,-1,-1,-1,-1,-1,-1,-1,-1,-1,-1,-1,-1,-1,-1,-1,-1,-1,-1,-1,-1,-1,-1,-1,-1,-1,-1,-1,-1,-1,-1,-1,-1,-1,-1,-1,-1,-1,-1,-1,-1,-1,-1,-1,-1,-1,-1,-1,-1,-1,-1,-1,-1],"loss_changes":[7.107932E3,1.9958386E3,1.0684219E3,3.7039722E2,4.9561865E2,9.355596E2,4.6359467E1,3.2817514E2,1.326954E2,1.6716455E2,1.4306805E2,1.0505553E3,1.6206201E2,3.5230927E1,1.0409241E0,2.3949585E2,3.0991736E2,1.252552E0,8.384412E1,9.1750854E1,1.5410156E1,1.9509772E2,0E0,4.447672E2,3.636631E2,1.5561737E2,1.3263037E2,8.401726E0,1.1417906E1,6.0221624E0,1.2331543E0,7.5420105E1,2.251307E2,2.4791776E2,2.040231E2,0E0,7.537575E-1,1.3722229E1,3.9955563E1,8.147659E1,1.180719E1,1.5429688E-1,1.7161285E1,2.665593E1,8.449124E1,2.7856946E2,3.571765E1,9.462233E1,2.0810669E1,5.2680237E2,4.344049E2,4.563867E1,7.381578E1,5.65271E0,8.540108E0,2.2019157E0,0E0,0E0,0E0,0E0,0E0,0E0,0E0,0E0,0E0,0E0,0E0,0E0,0E0,0E0,0E0,0E0,0E0,0E0,0E0,0E0,0E0,0E0,0E0,0E0,0E0,0E0,0E0,0E0,0E0,0E0,0E0,0E0,0E0,0E0,0E0,0E0,0E0,0E0,0E0,0E0,0E0,0E0,0E0,0E0,0E0,0E0,0E0,0E0,0E0,0E0,0E0,0E0,0E0],"parents":[2147483647,0,0,1,1,2,2,3,3,4,4,5,5,6,6,7,7,8,8,9,9,10,10,11,11,12,12,13,13,14,14,15,15,16,16,17,17,18,18,19,19,20,20,21,21,23,23,24,24,25,25,26,26,27,27,28,28,29,29,30,30,31,31,32,32,33,33,34,34,36,36,37,37,38,38,39,39,40,40,41,41,42,42,43,43,44,44,45,45,46,46,47,47,48,48,49,49,50,50,51,51,52,52,53,53,54,54,55,55],"right_children":[2,4,6,8,10,12,14,16,18,20,22,24,26,28,30,32,34,36,38,40,42,44,-1,46,48,50,52,54,56,58,60,62,64,66,68,-1,70,72,74,76,78,80,82,84,86,88,90,92,94,96,98,100,102,104,106,108,-1,-1,-1,-1,-1,-1,-1,-1,-1,-1,-1,-1,-1,-1,-1,-1,-1,-1,-1,-1,-1,-1,-1,-1,-1,-1,-1,-1,-1,-1,-1,-1,-1,-1,-1,-1,-1,-1,-1,-1,-1,-1,-1,-1,-1,-1,-1,-1,-1,-1,-1,-1,-1],"split_conditions":[1.6784705E0,3.2788177E1,1.2944156E2,4.5583397E1,-2.6E1,-3.4E1,1.4935365E2,-1.77E2,2.729E0,3.338155E1,1.230561E2,3.211888E1,3.9974917E-2,1.598E1,1.5440881E2,8.35E0,3.2426754E1,3.1841602E1,-4.1E1,4.700726E0,-3E1,7.194736E1,-7.8433216E-2,5.061863E1,1.6889765E1,3.2142376E1,1.8408E1,6.319167E-2,3.0215971E1,5.593E0,2.0629E1,2E0,8E0,7.458989E-1,5.7055492E0,3.440249E-2,1.5982754E0,9.969727E1,5E0,6E0,-4.8E1,3.3561863E1,6.513654E1,3.635484E1,5.3158826E-1,-6.2E1,1.1356297E2,3.282092E1,4.615E0,6.108344E1,1.1658E1,-8E0,8.058297E1,2.5940487E0,3.489034E1,1.9221E1,-1.54354265E-2,-4.6297144E-3,-7.173734E-2,-7.436996E-2,-3.5044182E-2,9.608562E-3,-5.9982087E-2,1.4877962E-2,-4.448484E-2,-3.3498984E-2,2.20813E-2,2.8183428E-3,-6.013253E-2,8.765486E-2,4.622345E-2,-7.376104E-2,-2.8903628E-2,5.195463E-3,-5.8018774E-2,-4.217295E-2,1.1376296E-2,-6.593641E-2,-3.5559263E-2,-6.625183E-2,-7.463925E-2,-6.484001E-2,-1.7593456E-2,-5.5333406E-2,1.4252046E-2,-4.8468504E-2,2.5999961E-2,1.884474E-2,6.0410287E-2,-7.9086475E-2,1.5813975E-2,1.2905719E-2,-5.898387E-2,-3.5957173E-2,-6.802901E-2,6.324606E-2,-5.979939E-2,-3.766253E-2,4.691679E-2,6.062589E-2,4.1158456E-2,-2.2160769E-2,4.6135746E-2,-1.630686E-2,-6.266647E-2,1.911482E-2,-4.1380987E-2,2.6080359E-2,7.4952744E-2],"split_indices":[1,2,9,9,3,3,9,3,0,2,9,2,4,0,9,0,2,2,3,9,3,9,0,9,9,2,0,4,2,0,0,6,6,1,9,0,1,9,6,6,3,2,9,2,1,3,9,2,0,9,0,3,9,1,2,0,0,0,0,0,0,0,0,0,0,0,0,0,0,0,0,0,0,0,0,0,0,0,0,0,0,0,0,0,0,0,0,0,0,0,0,0,0,0,0,0,0,0,0,0,0,0,0,0,0,0,0,0,0],"split_type":[0,0,0,0,0,0,0,0,0,0,0,0,0,0,0,0,0,0,0,0,0,0,0,0,0,0,0,0,0,0,0,0,0,0,0,0,0,0,0,0,0,0,0,0,0,0,0,0,0,0,0,0,0,0,0,0,0,0,0,0,0,0,0,0,0,0,0,0,0,0,0,0,0,0,0,0,0,0,0,0,0,0,0,0,0,0,0,0,0,0,0,0,0,0,0,0,0,0,0,0,0,0,0,0,0,0,0,0,0],"sum_hessian":[1.5748653E4,7.867509E3,7.881145E3,4.0718433E3,3.7956655E3,7.5791807E3,3.019643E2,3.6282634E3,4.4357965E2,3.2159407E3,5.7972485E2,2.5521821E3,5.0269985E3,1.01374565E2,2.0058972E2,1.1456343E3,2.4826292E3,2.2329605E1,4.2125003E2,7.8802936E2,2.4279114E3,5.000742E2,7.965065E1,1.7243436E3,8.278385E2,1.6123403E3,3.4146582E3,7.9171104E1,2.2203463E1,1.4748268E1,1.8584145E2,4.6015085E2,6.8548346E2,1.968932E3,5.136972E2,6.25542E0,1.6074184E1,3.170755E2,1.0417453E2,3.7650647E2,4.1152292E2,2.3175862E3,1.10325195E2,1.7309715E2,3.2697702E2,1.6276653E3,9.667835E1,3.7877454E2,4.4906396E2,9.285739E2,6.837664E2,3.25832E3,1.5633817E2,5.6451557E1,2.271955E1,1.2655668E1,9.547794E0,5.3989744E0,9.349294E0,1.8069981E2,5.1416335E0,4.2510258E1,4.176406E2,4.341805E2,2.5130292E2,2.2575076E2,1.7431813E3,2.63574E2,2.5012321E2,8.980081E0,7.094104E0,2.967524E2,2.0323112E1,6.472479E1,3.9449734E1,2.8237466E2,9.4131805E1,3.7147577E2,4.0047134E1,9.771391E1,2.2198723E3,8.386985E1,2.6455347E1,1.5855531E2,1.4541835E1,4.2989216E1,2.8398782E2,7.428969E2,8.847683E2,8.592398E1,1.0754374E1,3.2657303E2,5.220151E1,6.32834E1,3.8578055E2,8.3227954E2,9.6294395E1,2.2593056E2,4.5783588E2,2.9103096E3,3.480104E2,7.986614E1,7.647202E1,8.9483795E0,4.7503178E1,8.610389E0,1.410916E1,6.423112E0,6.2325563E0],"tree_param":{"num_deleted":"0","num_feature":"10","num_nodes":"109","size_leaf_vector":"1"}},{"base_weights":[-4.2940094E-3,6.884065E-1,-8.692946E-1,7.7226317E-1,-1.0894225E0,-5.158899E-1,-1.2991867E0,3.1008422E-1,9.398037E-1,-5.854302E-1,-1.4172009E0,-2.3048835E-1,-1.2019348E0,-6.9562066E-1,-1.4050707E0,6.265331E-1,-5.4923594E-2,4.9527413E-1,9.8370886E-1,-8.7497365E-1,2.1913955E-1,-1.431205E0,-3.464688E-2,-9.110008E-1,1.590199E-1,-8.637187E-1,-1.4520601E0,-1.3462584E0,-4.837877E-1,-1.3207628E0,-1.4614794E0,7.54928E-1,-7.5399387E-1,1.117907E-1,-9.157113E-1,1.0131924E0,-2.0051076E-1,1.0938382E0,7.865044E-1,-1.0004824E0,3.8467992E-2,5.7015127E-1,-6.903443E-2,-7.3735885E-2,-1.081184E0,-6.2193066E-1,-1.426872E0,-1.938854E-1,4.2508978E-1,-2.4111487E-1,-1.2487764E0,-7.318535E-2,-1.1703628E0,-2.3764541E-2,-1.419484E0,-9.4488794E-1,-7.945371E-2,-1.0496472E0,-1.3712561E0,-4.541066E-2,-7.319942E-2,1.882195E-2,5.9465643E-2,5.7342976E-2,-5.7719667E-2,-4.9262703E-3,3.5143096E-2,2.1659994E-2,-5.4427233E-2,-5.6259395E-3,6.7042604E-2,5.2750143E-3,-3.7317995E-2,5.7113495E-2,-7.292736E-5,-8.583769E-3,5.2066803E-2,-5.5918753E-2,6.559372E-3,4.48085E-2,-5.033929E-2,-2.9910533E-4,5.3228404E-2,-1.061506E-2,-7.162141E-2,-4.5182243E-2,1.0679274E-2,-2.361525E-2,-7.3333345E-2,2.0122075E-2,-2.5081513E-2,3.163232E-2,-3.558299E-2,-4.1684173E-2,5.1392363E-3,-6.604262E-2,-2.5848934E-2,-1.6086018E-2,-7.0769876E-2,-7.640968E-2,-4.301121E-2,-5.0351866E-2,-2.4308579E-3,-4.746216E-2,1.1465702E-2,-2.7898187E-2,-7.050062E-2,-7.0397295E-2,-5.4524224E-2],"categories":[],"categories_nodes":[],"categories_segments":[],"categories_sizes":[],"default_left":[0,0,0,1,0,0,0,0,0,0,0,0,0,0,0,0,1,0,1,1,0,1,0,0,0,0,0,0,0,0,0,0,1,1,0,0,0,0,0,0,0,0,0,0,0,0,0,0,0,0,0,0,0,0,0,0,0,0,0,0,0,0,0,0,0,0,0,0,0,0,0,0,0,0,0,0,0,0,0,0,0,0,0,0,0,0,0,0,0,0,0,0,0,0,0,0,0,0,0,0,0,0,0,0,0,0,0,0,0],"id":9,"left_children":[1,3,5,7,9,11,13,15,17,19,21,23,25,27,29,31,33,35,37,39,41,43,-1,45,47,49,51,53,55,57,59,61,63,65,67,69,71,73,75,77,79,81,-1,-1,83,85,87,89,91,93,95,-1,97,-1,99,101,103,105,107,-1,-1,-1,-1,-1,-1,-1,-1,-1,-1,-1,-1,-1,-1,-1,-1,-1,-1,-1,-1,-1,-1,-1,-1,-1,-1,-1,-1,-1,-1,-1,-1,-1,-1,-1,-1,-1,-1,-1,-1,-1,-1,-1,-1,-1,-1,-1,-1,-1,-1],"loss_changes":[9.28321E3,1.2834124E3,1.045873E3,6.3581055E2,6.3047394E1,7.4028925E2,1.9741846E2,2.5278186E2,1.1704736E2,3.6290825E1,1.1713257E0,7.0872546E2,9.250708E1,6.3384186E1,1.0359863E1,2.0831091E2,1.4608002E2,1.9640245E2,1.1810791E2,1.3208359E1,2.4090546E1,1.6329346E0,0E0,1.4404114E2,1.5979703E2,1.13424774E2,1.1364746E-1,6.391342E0,6.566781E1,1.2973022E1,6.171875E-1,1.7578253E2,7.7557144E1,1.0610595E2,3.904251E1,1.1544336E2,3.9060284E1,1.8671387E2,4.812671E2,1.3639488E1,1.4018594E1,1.00558815E1,0E0,0E0,8.46962E0,1.475212E2,1.2356201E1,1.3446896E2,2.2933237E2,3.742047E1,1.4595367E1,0E0,5.739311E0,0E0,4.789551E0,9.025101E0,5.114943E1,2.960646E1,7.474121E0,0E0,0E0,0E0,0E0,0E0,0E0,0E0,0E0,0E0,0E0,0E0,0E0,0E0,0E0,0E0,0E0,0E0,0E0,0E0,0E0,0E0,0E0,0E0,0E0,0E0,0E0,0E0,0E0,0E0,0E0,0E0,0E0,0E0,0E0,0E0,0E0,0E0,0E0,0E0,0E0,0E0,0E0,0E0,0E0,0E0,0E0,0E0,0E0,0E0,0E0],"parents":[2147483647,0,0,1,1,2,2,3,3,4,4,5,5,6,6,7,7,8,8,9,9,10,10,11,11,12,12,13,13,14,14,15,15,16,16,17,17,18,18,19,19,20,20,21,21,23,23,24,24,25,25,26,26,27,27,28,28,29,29,30,30,31,31,32,32,33,33,34,34,35,35,36,36,37,37,38,38,39,39,40,40,41,41,44,44,45,45,46,46,47,47,48,48,49,49,50,50,52,52,54,54,55,55,56,56,57,57,58,58],"right_children":[2,4,6,8,10,12,14,16,18,20,22,24,26,28,30,32,34,36,38,40,42,44,-1,46,48,50,52,54,56,58,60,62,64,66,68,70,72,74,76,78,80,82,-1,-1,84,86,88,90,92,94,96,-1,98,-1,100,102,104,106,108,-1,-1,-1,-1,-1,-1,-1,-1,-1,-1,-1,-1,-1,-1,-1,-1,-1,-1,-1,-1,-1,-1,-1,-1,-1,-1,-1,-1,-1,-1,-1,-1,-1,-1,-1,-1,-1,-1,-1,-1,-1,-1,-1,-1,-1,-1,-1,-1,-1,-1],"split_conditions":[4.4630646E1,1.2699281E2,1.8796282E1,1.9825559E0,1.4935365E2,3.2851006E1,6.2883152E1,3.2055523E1,-6.1E1,1.5908E1,7.5665865E0,7.7E0,3.338155E1,-4.7E1,3.3561863E1,7.194736E1,1.8529E1,5.3635364E0,3.2142376E1,3.4753773E1,1.2864743E1,1.4208496E1,-3.464688E-2,1.04481125E2,-1.77E2,1.1522508E2,1.7839973E1,2.520211E1,1.0116918E0,2.5707716E1,6.824E0,-6.1E1,3.294E0,3.586999E1,7.8852468E0,9.665E0,3.1673853E1,1.8242819E1,3.3264862E1,1.6948814E1,3.5482365E1,3.502124E1,-6.903443E-2,-7.3735885E-2,-1E1,-1.38E2,5.534908E-1,4.7212866E-1,1.1622636E2,-1.86E2,1.4145E1,-7.318535E-2,3.4307125E1,-2.3764541E-2,8.254177E1,3.6392025E1,1E0,1.1755832E2,-4.1E1,-4.541066E-2,-7.319942E-2,1.882195E-2,5.9465643E-2,5.7342976E-2,-5.7719667E-2,-4.9262703E-3,3.5143096E-2,2.1659994E-2,-5.4427233E-2,-5.6259395E-3,6.7042604E-2,5.2750143E-3,-3.7317995E-2,5.7113495E-2,-7.292736E-5,-8.583769E-3,5.2066803E-2,-5.5918753E-2,6.559372E-3,4.48085E-2,-5.033929E-2,-2.9910533E-4,5.3228404E-2,-1.061506E-2,-7.162141E-2,-4.5182243E-2,1.0679274E-2,-2.361525E-2,-7.3333345E-2,2.0122075E-2,-2.5081513E-2,3.163232E-2,-3.558299E-2,-4.1684173E-2,5.1392363E-3,-6.604262E-2,-2.5848934E-2,-1.6086018E-2,-7.0769876E-2,-7.640968E-2,-4.301121E-2,-5.0351866E-2,-2.4308579E-3,-4.746216E-2,1.1465702E-2,-2.7898187E-2,-7.050062E-2,-7.0397295E-2,-5.4524224E-2],"split_indices":[8,9,9,1,9,2,8,2,3,0,7,0,2,3,2,9,0,9,2,2,8,1,0,8,3,8,9,9,1,9,0,3,0,2,8,0,2,8,2,8,2,2,0,0,3,3,1,9,8,3,0,0,2,0,9,2,5,8,3,0,0,0,0,0,0,0,0,0,0,0,0,0,0,0,0,0,0,0,0,0,0,0,0,0,0,0,0,0,0,0,0,0,0,0,0,0,0,0,0,0,0,0,0,0,0,0,0,0,0],"split_type":[0,0,0,0,0,0,0,0,0,0,0,0,0,0,0,0,0,0,0,0,0,0,0,0,0,0,0,0,0,0,0,0,0,0,0,0,0,0,0,0,0,0,0,0,0,0,0,0,0,0,0,0,0,0,0,0,0,0,0,0,0,0,0,0,0,0,0,0,0,0,0,0,0,0,0,0,0,0,0,0,0,0,0,0,0,0,0,0,0,0,0,0,0,0,0,0,0,0,0,0,0,0,0,0,0,0,0,0,0],"sum_hessian":[1.5490998E4,8.602292E3,6.8887065E3,8.215409E3,3.8688257E2,3.7820227E3,3.106684E3,2.186675E3,6.028734E3,1.5367816E2,2.332044E2,2.6719475E3,1.1100751E3,4.6493726E2,2.6417468E3,1.171009E3,1.015666E3,5.4322845E2,5.485506E3,1.130362E2,4.0641968E1,2.2768777E2,5.5166264E0,9.722467E2,1.6997008E3,4.7399634E2,6.360788E2,1.12762794E2,3.5217447E2,1.0694873E3,1.5722595E3,1.0718481E3,9.916082E1,8.515038E2,1.6416226E2,3.1123978E2,2.3198865E2,3.5165984E3,1.9689072E3,9.939351E1,1.3642687E1,3.390839E1,6.7335773E0,1.9940045E2,2.828733E1,6.246317E2,3.4761502E2,7.305808E2,9.6912006E2,1.8184888E2,2.9214746E2,6.0645374E2,2.9625063E1,9.432013E0,1.0333079E2,1.6379703E2,1.8837743E2,1.7164401E2,8.978433E2,8.916423E0,1.563343E3,5.738964E2,4.9795175E2,1.6885359E1,8.227547E1,6.285249E2,2.2297884E2,1.8408047E1,1.4575421E2,7.024761E1,2.4099217E2,1.4905165E2,8.293701E1,3.3677332E3,1.4886533E2,4.1361777E2,1.5552894E3,9.010669E1,9.286823E0,7.624535E0,6.0181513E0,1.6022896E1,1.7885496E1,8.687051E0,1.960028E1,4.6715677E2,1.5747493E2,1.4527306E1,3.330877E2,2.4847339E2,4.821074E2,8.1994037E2,1.491797E2,6.636421E1,1.15484665E2,2.6509616E2,2.7051311E1,7.2470407E0,2.2378021E1,8.49138E1,1.8416985E1,1.529556E2,1.0841424E1,4.889402E1,1.3948341E2,7.379021E1,9.785381E1,7.90212E2,1.0763137E2],"tree_param":{"num_deleted":"0","num_feature":"10","num_nodes":"109","size_leaf_vector":"1"}},{"base_weights":[-4.554033E-3,-6.2275344E-1,6.177576E-1,-1.7736693E-1,-1.1045086E0,6.859058E-1,-1.1197621E0,-7.479775E-2,-1.0331554E0,-1.2607417E0,-2.098161E-1,2.390121E-1,9.1812027E-1,-6.5579593E-1,-1.3626443E0,-4.3811324E-1,1.7171733E-1,1.1630514E0,-1.1481274E0,-8.156217E-1,-1.3653494E0,-9.712268E-3,-7.478794E-2,6.512542E-1,-6.4004326E-1,9.575306E-1,7.108447E-3,-8.8074195E-1,6.2406045E-1,-1.1611474E0,-7.245898E-2,-7.5100654E-1,8.400116E-1,-7.000791E-1,2.690025E-1,2.3529487E-2,1.3696151E0,5.635435E-1,-1.2296562E0,1.3935538E-3,-9.559817E-1,-1.3897951E0,-9.54041E-1,-8.903051E-1,4.0474594E-1,7.6866204E-1,-1.3240098E0,-0E0,-1.1995845E0,7.2094786E-1,1.0859203E0,-4.2062593E-1,1.0172493E0,-9.643186E-1,1.3610589E-2,5.676299E-2,-1.6184557E-2,-1.3549535E0,-8.013187E-1,-4.347958E-2,1.0877773E-2,5.3188026E-2,-2.498653E-2,2.0303024E-2,-4.99398E-2,1.7554773E-2,-2.8041974E-2,8.2594074E-2,3.137209E-2,6.289421E-2,-2.8111357E-2,-6.443741E-2,-3.9568804E-3,-1.4367232E-2,6.100213E-2,-6.3359916E-2,-3.8837906E-2,-5.863492E-2,-7.085698E-2,-2.6135994E-2,-6.9951855E-2,-6.1517727E-2,-2.457359E-2,-3.9183173E-2,2.7989272E-2,1.6302366E-2,5.6381263E-2,-2.9620884E-2,-8.3707266E-2,1.0072109E-2,-5.5894103E-2,-2.7669488E-2,-6.511198E-2,3.8866524E-2,-3.798311E-2,6.1415024E-2,4.881271E-2,-4.5335203E-2,3.5562795E-2,2.8927494E-2,6.298143E-2,-5.678713E-2,-2.506476E-2,-2.983648E-2,-7.2538264E-2,2.3244334E-2,-5.9811007E-2],"categories":[],"categories_nodes":[],"categories_segments":[],"categories_sizes":[],"default_left":[1,0,0,0,0,0,0,0,1,1,0,0,1,0,1,0,0,0,0,0,0,0,0,0,0,0,0,0,1,1,0,0,0,0,0,0,0,0,0,0,0,0,0,0,1,0,0,0,0,0,1,0,0,0,0,0,0,0,0,0,0,0,0,0,0,0,0,0,0,0,0,0,0,0,0,0,0,0,0,0,0,0,0,0,0,0,0,0,0,0,0,0,0,0,0,0,0,0,0,0,0,0,0,0,0,0,0],"id":10,"left_children":[1,3,5,7,9,11,13,15,17,19,21,23,25,27,29,31,33,35,37,39,41,43,-1,45,47,49,51,53,55,57,-1,59,61,63,65,-1,67,69,71,73,75,77,79,81,83,85,87,89,91,93,95,97,99,101,-1,-1,-1,103,105,-1,-1,-1,-1,-1,-1,-1,-1,-1,-1,-1,-1,-1,-1,-1,-1,-1,-1,-1,-1,-1,-1,-1,-1,-1,-1,-1,-1,-1,-1,-1,-1,-1,-1,-1,-1,-1,-1,-1,-1,-1,-1,-1,-1,-1,-1,-1,-1],"loss_changes":[5.867879E3,1.6414736E3,9.007451E2,3.4892148E2,5.133467E2,7.587549E2,3.126825E1,3.1829385E2,1.0876907E2,1.4435303E2,1.407696E2,9.0735944E2,1.7270166E2,2.9581913E1,1.3245544E0,5.7513556E2,1.7970618E2,2.2638607E0,5.725836E1,6.867758E1,2.3895508E1,1.7377684E2,0E0,3.9620966E2,2.862857E2,1.3916602E2,8.720063E1,8.63533E0,7.996945E0,3.0008774E0,0E0,1.3287427E2,8.540105E1,7.074983E1,1.2998183E2,0E0,2.0911198E0,1.5657607E1,2.606012E1,3.1609722E1,2.7283783E1,1.2250488E1,2.699324E1,1.9893707E1,6.004142E1,2.5518665E2,2.335675E1,8.4425224E1,2.7387268E1,1.3634302E2,4.5239258E1,7.8585884E1,5.4740257E0,5.6683807E0,0E0,0E0,0E0,1.7241364E0,1.274198E1,0E0,0E0,0E0,0E0,0E0,0E0,0E0,0E0,0E0,0E0,0E0,0E0,0E0,0E0,0E0,0E0,0E0,0E0,0E0,0E0,0E0,0E0,0E0,0E0,0E0,0E0,0E0,0E0,0E0,0E0,0E0,0E0,0E0,0E0,0E0,0E0,0E0,0E0,0E0,0E0,0E0,0E0,0E0,0E0,0E0,0E0,0E0,0E0],"parents":[2147483647,0,0,1,1,2,2,3,3,4,4,5,5,6,6,7,7,8,8,9,9,10,10,11,11,12,12,13,13,14,14,15,15,16,16,17,17,18,18,19,19,20,20,21,21,23,23,24,24,25,25,26,26,27,27,28,28,29,29,31,31,32,32,33,33,34,34,36,36,37,37,38,38,39,39,40,40,41,41,42,42,43,43,44,44,45,45,46,46,47,47,48,48,49,49,50,50,51,51,52,52,53,53,57,57,58,58],"right_children":[2,4,6,8,10,12,14,16,18,20,22,24,26,28,30,32,34,36,38,40,42,44,-1,46,48,50,52,54,56,58,-1,60,62,64,66,-1,68,70,72,74,76,78,80,82,84,86,88,90,92,94,96,98,100,102,-1,-1,-1,104,106,-1,-1,-1,-1,-1,-1,-1,-1,-1,-1,-1,-1,-1,-1,-1,-1,-1,-1,-1,-1,-1,-1,-1,-1,-1,-1,-1,-1,-1,-1,-1,-1,-1,-1,-1,-1,-1,-1,-1,-1,-1,-1,-1,-1,-1,-1,-1,-1],"split_conditions":[1.6784705E0,3.2788177E1,1.2944156E2,4.5583397E1,-2.5E1,-3.4E1,1.4935365E2,7.988E0,2.729E0,3.3176113E1,1.230561E2,3.2130543E1,1.8529E1,1.8408E1,2.9173426E1,-6.2E1,6.5061826E-1,3.1841602E1,3.0543978E1,4.7212866E-1,-3E1,7.194736E1,-7.478794E-2,5.061863E1,1.8796282E1,4.2663947E-2,2.7497404E0,1.4208496E1,3.0840271E1,1.2223E1,-7.245898E-2,1.1447386E1,3.2275322E1,4.6135718E-1,2.2962543E1,2.3529487E-2,1.5982754E0,8.681E0,1.1576088E2,4.5653608E-1,1.8011248E0,3.3561863E1,1.8408E1,6.108344E1,5.3158826E-1,-6.3E1,2.0397253E0,3.2851006E1,4.615E0,-6E0,3.1565397E1,8.7034966E1,-1.2E1,6.319167E-2,1.3610589E-2,5.676299E-2,-1.6184557E-2,1.2727213E-2,1.6613731E2,-4.347958E-2,1.0877773E-2,5.3188026E-2,-2.498653E-2,2.0303024E-2,-4.99398E-2,1.7554773E-2,-2.8041974E-2,8.2594074E-2,3.137209E-2,6.289421E-2,-2.8111357E-2,-6.443741E-2,-3.9568804E-3,-1.4367232E-2,6.100213E-2,-6.3359916E-2,-3.8837906E-2,-5.863492E-2,-7.085698E-2,-2.6135994E-2,-6.9951855E-2,-6.1517727E-2,-2.457359E-2,-3.9183173E-2,2.7989272E-2,1.6302366E-2,5.6381263E-2,-2.9620884E-2,-8.3707266E-2,1.0072109E-2,-5.5894103E-2,-2.7669488E-2,-6.511198E-2,3.8866524E-2,-3.798311E-2,6.1415024E-2,4.881271E-2,-4.5335203E-2,3.5562795E-2,2.8927494E-2,6.298143E-2,-5.678713E-2,-2.506476E-2,-2.983648E-2,-7.2538264E-2,2.3244334E-2,-5.9811007E-2],"split_indices":[1,2,9,9,3,3,9,0,0,2,9,2,0,0,2,3,1,2,2,9,3,9,0,9,9,4,7,1,2,0,0,7,2,9,9,0,1,0,9,9,7,2,0,9,1,3,1,2,0,3,2,9,3,4,0,0,0,4,9,0,0,0,0,0,0,0,0,0,0,0,0,0,0,0,0,0,0,0,0,0,0,0,0,0,0,0,0,0,0,0,0,0,0,0,0,0,0,0,0,0,0,0,0,0,0,0,0],"split_type":[0,0,0,0,0,0,0,0,0,0,0,0,0,0,0,0,0,0,0,0,0,0,0,0,0,0,0,0,0,0,0,0,0,0,0,0,0,0,0,0,0,0,0,0,0,0,0,0,0,0,0,0,0,0,0,0,0,0,0,0,0,0,0,0,0,0,0,0,0,0,0,0,0,0,0,0,0,0,0,0,0,0,0,0,0,0,0,0,0,0,0,0,0,0,0,0,0,0,0,0,0,0,0,0,0,0,0],"sum_hessian":[1.5250626E4,7.6506704E3,7.5999556E3,3.976209E3,3.6744617E3,7.313761E3,2.8619418E2,3.5517266E3,4.2448233E2,3.1277642E3,5.4669763E2,2.5017112E3,4.8120503E3,9.975288E1,1.864413E2,1.4355833E3,2.1161433E3,2.0619558E1,4.038628E2,5.970383E2,2.5307258E3,4.7402112E2,7.267649E1,1.7033027E3,7.9840845E2,4.612359E3,1.9969128E2,8.517295E1,1.457992E1,6.0692608E1,1.25748695E2,1.1536523E3,2.8193094E2,2.1171237E2,1.9044309E3,5.6020727E0,1.5017486E1,1.8037266E1,3.858255E2,8.757201E1,5.094663E2,2.3862778E3,1.4444783E2,1.5141187E2,3.2260925E2,1.6083645E3,9.493823E1,3.7288553E2,4.255229E2,1.6251328E3,2.987226E3,1.4062822E2,5.9063057E1,7.964957E1,5.5233855E0,9.411306E0,5.168613E0,3.7468403E1,2.3224205E1,1.027996E3,1.2565637E2,2.4182469E2,4.010624E1,4.486916E1,1.6684322E2,1.7336276E3,1.7080344E2,9.894061E0,5.1234245E0,1.11387205E1,6.8985453E0,3.6678018E2,1.9045332E1,7.134918E1,1.6222824E1,1.8375406E2,3.2571225E2,2.722597E2,2.1140183E3,7.456938E1,6.9878456E1,8.0468216E1,7.094365E1,3.6688072E1,2.859212E2,7.2123816E2,8.8712634E2,3.1693565E1,6.3244667E1,3.1664145E2,5.6244095E1,5.934186E1,3.6618103E2,1.5660394E3,5.9093315E1,1.2949165E3,1.6923094E3,9.858076E1,4.204747E1,2.2371256E1,3.6691803E1,5.691078E1,2.2738785E1,5.1314616E0,3.233694E1,5.4188495E0,1.7805357E1],"tree_param":{"num_deleted":"0","num_feature":"10","num_nodes":"107","size_leaf_vector":"1"}},{"base_weights":[-2.6318277E-3,6.4234686E-1,-7.974365E-1,7.150807E-1,-1.1403005E0,-4.370124E-1,-1.1934854E0,3.1044915E-1,8.6134875E-1,-7.3055273E-1,-6.948637E-2,-1.0040768E0,-2.5204287E-3,-5.6006545E-1,-1.313621E0,5.241362E-1,-1.5230161E-1,7.3728627E-1,1.0826758E0,-9.9901366E-1,6.391671E-2,-6.940338E-1,-1.2955675E0,8.4338E-2,-1.3394883E0,-9.983861E-1,-2.642489E-1,-1.0911794E0,-1.3611186E0,6.722934E-1,-7.1666545E-1,-6.6284424E-1,4.0004095E-1,8.885216E-1,4.4512734E-1,1.0987103E0,-1.0009558E0,-1.1305722E0,1.7304227E-2,5.182481E-1,-6.7033164E-2,-5.608991E-1,-6.968273E-2,-1.0298928E0,-1.3679856E0,-2.0235437E-1,4.5829764E-1,-7.9244274E-1,-1.4200876E0,-1.0592643E0,3.9427157E-2,-6.40793E-1,2.9058012E-1,-7.198438E-1,-1.4062315E0,-1.2290783E0,-1.3820685E0,1.9841556E-2,5.3709436E-2,5.8698352E-2,-5.0071962E-2,-1.909949E-2,-5.32223E-2,-7.2715096E-2,3.1618997E-2,5.0016142E-2,-5.628642E-2,-5.8593817E-2,4.4800546E-2,4.6575125E-2,6.100912E-2,-8.6695425E-2,2.7792064E-2,-6.9550954E-2,-3.7628047E-2,-3.774121E-2,4.1506287E-2,-8.0903685E-3,3.9210856E-2,1.9573905E-2,-3.471567E-2,5.1640742E-3,-5.648747E-2,-3.620154E-2,-6.8681955E-2,1.6648838E-2,-2.5542585E-2,3.388133E-2,-3.6000956E-2,-6.949068E-2,1.5537238E-3,-3.544289E-2,-7.252104E-2,-5.584703E-2,-4.481545E-3,2.9793207E-2,-4.7601294E-2,2.8754283E-2,-5.2797414E-2,-5.4083634E-2,1.0965338E-2,-7.106091E-2,-4.6302658E-2,-6.297769E-2,-1.729611E-2,-6.945356E-2,-4.56264E-2],"categories":[],"categories_nodes":[],"categories_segments":[],"categories_sizes":[],"default_left":[0,0,0,1,0,0,0,0,0,0,0,0,0,0,0,0,0,0,1,0,1,0,0,0,0,0,0,0,0,0,1,0,0,0,0,0,0,0,1,0,0,0,0,0,0,0,0,0,0,0,0,0,0,1,0,0,1,0,0,0,0,0,0,0,0,0,0,0,0,0,0,0,0,0,0,0,0,0,0,0,0,0,0,0,0,0,0,0,0,0,0,0,0,0,0,0,0,0,0,0,0,0,0,0,0,0,0],"id":11,"left_children":[1,3,5,7,9,11,13,15,17,19,-1,21,23,25,27,29,31,33,35,37,39,41,43,45,47,49,51,53,55,57,59,61,63,65,67,69,71,73,75,77,-1,79,-1,81,83,85,87,89,91,93,-1,95,97,99,101,103,105,-1,-1,-1,-1,-1,-1,-1,-1,-1,-1,-1,-1,-1,-1,-1,-1,-1,-1,-1,-1,-1,-1,-1,-1,-1,-1,-1,-1,-1,-1,-1,-1,-1,-1,-1,-1,-1,-1,-1,-1,-1,-1,-1,-1,-1,-1,-1,-1,-1,-1],"loss_changes":[7.7037524E3,1.0763882E3,9.602871E2,4.7138867E2,3.2043274E1,8.687139E2,2.4310352E2,2.0956903E2,1.597627E2,2.6911926E1,0E0,1.3714331E2,2.3221492E2,6.614249E1,2.6739746E1,2.6692715E2,1.8915877E2,1.6537256E2,7.128076E1,1.2687553E1,2.1370144E1,6.828046E1,1.3494751E1,2.0131339E2,4.0321655E0,2.3300705E1,6.453817E1,5.4878906E1,4.1708984E0,1.4283533E2,8.4619965E1,3.875862E1,1.3966907E2,5.5797974E2,9.36367E2,4.099341E1,1.992627E1,6.9351044E0,7.9527297E0,4.7748137E0,0E0,7.990253E1,0E0,1.9787659E1,1.0351562E0,1.7570683E2,2.110659E2,9.0770645E0,1.0190887E0,1.0961334E1,0E0,7.135059E1,4.8462982E1,7.586783E1,3.0752563E-1,7.832184E0,4.7626953E0,0E0,0E0,0E0,0E0,0E0,0E0,0E0,0E0,0E0,0E0,0E0,0E0,0E0,0E0,0E0,0E0,0E0,0E0,0E0,0E0,0E0,0E0,0E0,0E0,0E0,0E0,0E0,0E0,0E0,0E0,0E0,0E0,0E0,0E0,0E0,0E0,0E0,0E0,0E0,0E0,0E0,0E0,0E0,0E0,0E0,0E0,0E0,0E0,0E0,0E0],"parents":[2147483647,0,0,1,1,2,2,3,3,4,4,5,5,6,6,7,7,8,8,9,9,11,11,12,12,13,13,14,14,15,15,16,16,17,17,18,18,19,19,20,20,21,21,22,22,23,23,24,24,25,25,26,26,27,27,28,28,29,29,30,30,31,31,32,32,33,33,34,34,35,35,36,36,37,37,38,38,39,39,41,41,43,43,44,44,45,45,46,46,47,47,48,48,49,49,51,51,52,52,53,53,54,54,55,55,56,56],"right_children":[2,4,6,8,10,12,14,16,18,20,-1,22,24,26,28,30,32,34,36,38,40,42,44,46,48,50,52,54,56,58,60,62,64,66,68,70,72,74,76,78,-1,80,-1,82,84,86,88,90,92,94,-1,96,98,100,102,104,106,-1,-1,-1,-1,-1,-1,-1,-1,-1,-1,-1,-1,-1,-1,-1,-1,-1,-1,-1,-1,-1,-1,-1,-1,-1,-1,-1,-1,-1,-1,-1,-1,-1,-1,-1,-1,-1,-1,-1,-1,-1,-1,-1,-1,-1,-1,-1,-1,-1,-1],"split_conditions":[4.3739464E1,1.2944156E2,1.5226037E1,1.9825559E0,1.5440881E2,5E0,6.2883152E1,3.2470055E1,6.6112995E-2,1.5719E1,-6.948637E-2,1.04481125E2,3.338155E1,1.0045332E0,2.481676E1,7.403205E1,8.058297E1,6.108344E1,2.0428E1,1.2E1,3.1654583E1,1.1544E1,1.186518E2,-1.62E2,3.364139E1,1.802708E-1,3.329331E1,1.1755832E2,8.370431E1,-6.1E1,3.028E0,1.8061E1,-2.5E1,3.2570343E1,3.3026527E1,1.315E1,4.669698E0,1.4007838E2,6.319167E-2,3.0891499E1,-6.7033164E-2,6.36398E-1,-6.968273E-2,2.832324E-1,2.8574828E-3,4.7212866E-1,1.1298194E2,1.6223E1,6.0990803E1,3.6392025E1,3.9427157E-2,2.7903736E1,1.8646E1,1.1306063E0,2.4402718E1,8.287139E1,5.032459E0,1.9841556E-2,5.3709436E-2,5.8698352E-2,-5.0071962E-2,-1.909949E-2,-5.32223E-2,-7.2715096E-2,3.1618997E-2,5.0016142E-2,-5.628642E-2,-5.8593817E-2,4.4800546E-2,4.6575125E-2,6.100912E-2,-8.6695425E-2,2.7792064E-2,-6.9550954E-2,-3.7628047E-2,-3.774121E-2,4.1506287E-2,-8.0903685E-3,3.9210856E-2,1.9573905E-2,-3.471567E-2,5.1640742E-3,-5.648747E-2,-3.620154E-2,-6.8681955E-2,1.6648838E-2,-2.5542585E-2,3.388133E-2,-3.6000956E-2,-6.949068E-2,1.5537238E-3,-3.544289E-2,-7.252104E-2,-5.584703E-2,-4.481545E-3,2.9793207E-2,-4.7601294E-2,2.8754283E-2,-5.2797414E-2,-5.4083634E-2,1.0965338E-2,-7.106091E-2,-4.6302658E-2,-6.297769E-2,-1.729611E-2,-6.945356E-2,-4.56264E-2],"split_indices":[8,9,9,1,9,6,8,2,4,0,0,8,2,1,9,9,9,9,0,6,2,0,8,3,2,4,2,8,8,3,0,0,3,2,2,0,1,9,4,2,0,1,0,9,4,9,8,0,8,2,0,9,0,1,9,8,1,0,0,0,0,0,0,0,0,0,0,0,0,0,0,0,0,0,0,0,0,0,0,0,0,0,0,0,0,0,0,0,0,0,0,0,0,0,0,0,0,0,0,0,0,0,0,0,0,0,0],"split_type":[0,0,0,0,0,0,0,0,0,0,0,0,0,0,0,0,0,0,0,0,0,0,0,0,0,0,0,0,0,0,0,0,0,0,0,0,0,0,0,0,0,0,0,0,0,0,0,0,0,0,0,0,0,0,0,0,0,0,0,0,0,0,0,0,0,0,0,0,0,0,0,0,0,0,0,0,0,0,0,0,0,0,0,0,0,0,0,0,0,0,0,0,0,0,0,0,0,0,0,0,0,0,0,0,0,0,0],"sum_hessian":[1.5025809E4,8.294744E3,6.731064E3,7.970207E3,3.2453748E2,3.5252593E3,3.205805E3,2.1171619E3,5.8530454E3,1.2444101E2,2.0009648E2,1.5286481E3,1.9966111E3,5.121211E2,2.6936838E3,1.4484064E3,6.687555E2,3.753721E3,2.0993242E3,9.291299E1,3.1528025E1,7.425557E2,7.8609235E2,1.8756204E3,1.2099081E2,2.0526318E2,3.068579E2,4.785595E2,2.2151243E3,1.2943894E3,1.5401706E2,3.4751788E2,3.212376E2,2.4718108E3,1.28191E3,2.0838093E3,1.5515091E1,8.225178E1,1.0661204E1,2.4352945E1,7.175081E0,6.254752E2,1.1708049E2,1.7193391E2,6.1415845E2,1.0617964E3,8.13824E2,1.7087393E1,1.0390341E2,1.9894846E2,6.314722E0,1.8281363E2,1.2404428E2,2.2131238E2,2.5724713E2,3.1215588E2,1.9029684E3,7.693243E2,5.2506506E2,1.9707039E1,1.3431001E2,2.0579692E2,1.4172098E2,3.5134277E1,2.8610333E2,2.3423513E3,1.2945955E2,2.7911154E2,1.00279846E3,8.8082935E2,1.2029799E3,1.0515008E1,5.000082E0,4.6955456E1,3.5296326E1,5.440963E0,5.2202415E0,6.8510814E0,1.7501863E1,7.652416E1,5.4895105E2,1.3840126E1,1.5809378E2,6.622137E0,6.075363E2,3.8803726E2,6.7375916E2,6.865424E2,1.272815E2,9.575327E0,7.5120664E0,5.381757E0,9.852165E1,1.8753815E2,1.1410317E1,3.650968E1,1.4630396E2,1.029412E2,2.1103079E1,1.5972821E2,6.1584167E1,2.4735892E2,9.888228E0,3.012221E2,1.0933782E1,1.8728652E3,3.010314E1],"tree_param":{"num_deleted":"0","num_feature":"10","num_nodes":"107","size_leaf_vector":"1"}},{"base_weights":[5.2810544E-3,-5.66026E-1,5.79749E-1,-1.4573458E-1,-1.0422662E0,6.436177E-1,-1.0573478E0,-6.0854398E-2,-8.7968045E-1,-1.1939576E0,-2.6031575E-1,2.0993158E-1,8.646283E-1,-6.824948E-1,-1.3077753E0,-3.7684843E-1,1.543345E-1,-1.1980693E0,-8.5568525E-2,-7.359079E-1,-1.3037164E0,-8.009797E-2,-7.197214E-2,4.455578E-1,-1.1856285E0,9.006691E-1,9.956791E-2,-7.6433915E-1,3.6015283E-2,-6.829796E-2,-9.5502347E-1,-6.384498E-1,7.539597E-1,-1.339755E0,2.0818882E-1,6.467012E-2,-1.247234E0,4.7249675E-1,-8.084948E-1,-3.9531913E-1,-1.0399102E0,-1.1874162E0,-1.3744888E0,-8.3610016E-1,2.8317744E-1,7.043532E-1,-2.7331427E-1,-7.278752E-1,-1.2600657E0,6.5216005E-1,1.022431E0,-3.7754524E-1,1.0743474E0,2.3138363E-2,-8.5545367E-1,2.684037E-3,-6.664621E-2,-3.8316216E-2,1.6610892E-2,4.9303222E-2,-3.435635E-2,-1.4973397E-2,-7.379791E-2,1.5521402E-2,-2.598444E-2,-6.5308176E-2,-2.2249099E-2,3.2791387E-2,-5.3980112E-2,1.47345215E-2,-5.111885E-2,-2.7359867E-2,2.7700106E-2,-3.0374775E-2,-6.171104E-2,-6.3302696E-2,-3.8427617E-2,-6.9042705E-2,-5.813232E-2,5.5986907E-2,-4.6206217E-2,-3.7776154E-2,2.4500426E-2,1.4269902E-2,5.376625E-2,4.018866E-3,-5.300668E-2,-5.677647E-2,2.5736874E-2,-6.565087E-2,-2.2147933E-2,4.499755E-2,1.440339E-2,5.332623E-2,3.2967187E-2,-5.0907552E-2,1.4142828E-2,3.203707E-2,6.1632384E-2,-5.4304488E-2,-1.243992E-2],"categories":[],"categories_nodes":[],"categories_segments":[],"categories_sizes":[],"default_left":[1,0,0,0,0,0,0,0,0,0,0,0,1,0,0,0,0,0,1,0,0,0,0,0,0,0,0,0,0,0,0,0,0,0,0,0,0,1,0,0,0,0,0,0,1,0,0,0,0,0,0,0,0,0,0,0,0,0,0,0,0,0,0,0,0,0,0,0,0,0,0,0,0,0,0,0,0,0,0,0,0,0,0,0,0,0,0,0,0,0,0,0,0,0,0,0,0,0,0,0,0],"id":12,"left_children":[1,3,5,7,9,11,13,15,17,19,21,23,25,27,29,31,33,35,37,39,41,43,-1,45,47,49,51,53,-1,-1,55,57,59,61,63,-1,65,67,69,71,73,75,77,79,81,83,85,87,89,91,93,95,97,-1,99,-1,-1,-1,-1,-1,-1,-1,-1,-1,-1,-1,-1,-1,-1,-1,-1,-1,-1,-1,-1,-1,-1,-1,-1,-1,-1,-1,-1,-1,-1,-1,-1,-1,-1,-1,-1,-1,-1,-1,-1,-1,-1,-1,-1,-1,-1],"loss_changes":[4.900309E3,1.4981243E3,7.7907935E2,2.4766287E2,4.1578052E2,6.8657666E2,2.5180511E1,2.4261078E2,1.0397604E2,1.4657568E2,1.21181595E2,7.96417E2,1.3068823E2,1.3682426E1,1.8812866E0,4.2804834E2,1.7093358E2,3.762497E1,4.847392E1,5.8516235E1,1.7611328E1,1.3675545E2,0E0,3.856598E2,1.0805359E1,1.3632104E2,1.0037005E2,1.2576141E1,0E0,0E0,1.0547199E1,1.4607538E2,9.166777E1,9.852341E0,1.5265213E2,0E0,1.2901306E1,1.9952047E1,1.2724297E1,3.935171E1,2.4329956E1,2.8604736E1,1.1694336E-1,2.88387E1,7.2587135E1,2.363717E2,1.5296979E2,2.672984E1,1.2195984E1,1.3437256E2,4.7796387E1,6.1653313E1,3.8902512E0,0E0,1.37992325E1,0E0,0E0,0E0,0E0,0E0,0E0,0E0,0E0,0E0,0E0,0E0,0E0,0E0,0E0,0E0,0E0,0E0,0E0,0E0,0E0,0E0,0E0,0E0,0E0,0E0,0E0,0E0,0E0,0E0,0E0,0E0,0E0,0E0,0E0,0E0,0E0,0E0,0E0,0E0,0E0,0E0,0E0,0E0,0E0,0E0,0E0],"parents":[2147483647,0,0,1,1,2,2,3,3,4,4,5,5,6,6,7,7,8,8,9,9,10,10,11,11,12,12,13,13,14,14,15,15,16,16,17,17,18,18,19,19,20,20,21,21,23,23,24,24,25,25,26,26,27,27,30,30,31,31,32,32,33,33,34,34,36,36,37,37,38,38,39,39,40,40,41,41,42,42,43,43,44,44,45,45,46,46,47,47,48,48,49,49,50,50,51,51,52,52,54,54],"right_children":[2,4,6,8,10,12,14,16,18,20,22,24,26,28,30,32,34,36,38,40,42,44,-1,46,48,50,52,54,-1,-1,56,58,60,62,64,-1,66,68,70,72,74,76,78,80,82,84,86,88,90,92,94,96,98,-1,100,-1,-1,-1,-1,-1,-1,-1,-1,-1,-1,-1,-1,-1,-1,-1,-1,-1,-1,-1,-1,-1,-1,-1,-1,-1,-1,-1,-1,-1,-1,-1,-1,-1,-1,-1,-1,-1,-1,-1,-1,-1,-1,-1,-1,-1,-1],"split_conditions":[1.6784705E0,3.2788177E1,1.2944156E2,4.621929E1,-2.6E1,-3.4E1,1.5440881E2,7.931E0,-4.1E1,3.3176113E1,1.230561E2,4.897934E1,1.8529E1,1.7478748E1,1.4208496E1,-6.1E1,5.3158826E-1,2.729E0,7.156E0,2.424539E0,1.8795E1,7.093809E1,-7.197214E-2,3.2130543E1,1.8441819E0,4.034073E-2,2.7497404E0,-4.1E1,3.6015283E-2,-6.829796E-2,-1E1,1.1173131E1,3.2275322E1,4.6135718E-1,1.833576E1,6.467012E-2,9.969727E1,1.5982754E0,-4E1,-1.55E2,6.44E0,-4.8E1,-3E1,1.4429659E1,5.9783775E-1,-6.2E1,1.8796282E1,5.693111E-2,-3.5E1,5.6300205E1,-8E0,7.403205E1,4.538943E0,2.3138363E-2,6.260003E-2,2.684037E-3,-6.664621E-2,-3.8316216E-2,1.6610892E-2,4.9303222E-2,-3.435635E-2,-1.4973397E-2,-7.379791E-2,1.5521402E-2,-2.598444E-2,-6.5308176E-2,-2.2249099E-2,3.2791387E-2,-5.3980112E-2,1.47345215E-2,-5.111885E-2,-2.7359867E-2,2.7700106E-2,-3.0374775E-2,-6.171104E-2,-6.3302696E-2,-3.8427617E-2,-6.9042705E-2,-5.813232E-2,5.5986907E-2,-4.6206217E-2,-3.7776154E-2,2.4500426E-2,1.4269902E-2,5.376625E-2,4.018866E-3,-5.300668E-2,-5.677647E-2,2.5736874E-2,-6.565087E-2,-2.2147933E-2,4.499755E-2,1.440339E-2,5.332623E-2,3.2967187E-2,-5.0907552E-2,1.4142828E-2,3.203707E-2,6.1632384E-2,-5.4304488E-2,-1.243992E-2],"split_indices":[1,2,9,9,3,3,9,0,3,2,9,9,0,1,1,3,1,0,0,9,0,9,0,2,1,4,7,3,0,0,3,7,2,9,9,0,9,1,3,3,0,3,3,9,1,3,9,4,3,9,3,9,7,0,4,0,0,0,0,0,0,0,0,0,0,0,0,0,0,0,0,0,0,0,0,0,0,0,0,0,0,0,0,0,0,0,0,0,0,0,0,0,0,0,0,0,0,0,0,0,0],"split_type":[0,0,0,0,0,0,0,0,0,0,0,0,0,0,0,0,0,0,0,0,0,0,0,0,0,0,0,0,0,0,0,0,0,0,0,0,0,0,0,0,0,0,0,0,0,0,0,0,0,0,0,0,0,0,0,0,0,0,0,0,0,0,0,0,0,0,0,0,0,0,0,0,0,0,0,0,0,0,0,0,0,0,0,0,0,0,0,0,0,0,0,0,0,0,0,0,0,0,0,0,0],"sum_hessian":[1.4928969E4,7.484997E3,7.443971E3,3.9768582E3,3.508139E3,7.1651045E3,2.7886713E2,3.5657065E3,4.1115158E2,2.937614E3,5.705249E2,2.4195862E3,4.745518E3,1.1333942E2,1.6552771E2,1.4443965E3,2.12131E3,2.9303027E2,1.1812132E2,5.6951404E2,2.3680999E3,4.9588635E2,7.4638535E1,2.0707188E3,3.4886752E2,4.5317275E3,2.1379042E2,1.0758872E2,5.75069E0,1.3938188E2,2.6145838E1,1.1734535E3,2.7094308E2,7.290691E1,2.048403E3,5.141417E0,2.8788885E2,6.6779076E1,5.1342243E1,2.698345E2,2.9967957E2,9.031489E2,1.464951E3,1.6061298E2,3.3527338E2,1.5227021E3,5.480166E2,5.049134E1,2.983762E2,1.4925978E3,3.03913E3,1.4387823E2,6.9912186E1,7.078661E0,1.0051006E2,7.2874064E0,1.8858433E1,1.037136E3,1.3631741E2,2.3368964E2,3.7253445E1,8.895804E0,6.401111E1,1.7967401E3,2.5166295E2,2.674877E2,2.0401133E1,6.0298607E1,6.48047E0,8.200326E0,4.3141914E1,2.330747E2,3.6759785E1,9.435186E1,2.0532771E2,7.5848846E2,1.4466045E2,1.4164032E3,4.85479E1,6.3634987E0,1.5424947E2,5.515417E1,2.801192E2,7.16061E2,8.066411E2,3.7859918E2,1.6941742E2,3.8144295E1,1.2347048E1,2.7953214E2,1.8844055E1,8.871095E2,6.054883E2,2.7080493E3,3.3108044E2,7.283562E1,7.104262E1,2.0216314E1,4.9695877E1,7.2132034E1,2.8378027E1],"tree_param":{"num_deleted":"0","num_feature":"10","num_nodes":"101","size_leaf_vector":"1"}},{"base_weights":[-3.6367022E-3,6.357551E-1,-7.072386E-1,7.085541E-1,-9.880604E-1,-3.5774282E-1,-1.0892599E0,8.039673E-1,3.5708055E-1,-6.2018377E-1,-1.3079951E0,-1.9537687E-1,-1.197579E0,-4.859E-1,-1.2638575E0,8.911099E-1,5.747684E-1,-1.1467211E-1,5.718217E-1,-7.907777E-1,3.6501306E-1,-6.6265084E-2,-3.2245006E-2,-7.911642E-1,1.6911587E-1,-7.632267E-1,-1.3179629E0,-7.749293E-1,-1.52285E-1,-1.0459695E0,-1.3136742E0,3.9460826E-1,9.511368E-1,4.5117E-2,7.6668966E-1,8.15581E-2,-8.339173E-1,6.4203167E-1,-7.321185E-2,-1.3594992E0,-6.728153E-1,-1.2520741E-2,7.8695744E-1,-1.0394933E0,-2.5921243E-1,-1.7512415E-1,4.2241916E-1,9.775546E-1,-1.2509505E0,-3.4357112E-2,-1.3247675E0,-9.032384E-1,1.1033914E-1,1.998876E-2,-6.910933E-2,-3.8647532E-1,-1.2267721E0,-1.1176382E0,-1.3268387E0,4.8047036E-2,-3.4383416E-2,4.8800863E-2,-7.954375E-4,3.8183298E-2,-4.2451832E-2,-2.482678E-3,4.7361E-2,-2.1623632E-2,1.430042E-2,5.4158803E-2,-4.9836874E-2,1.9606274E-2,4.4104178E-2,-3.7390187E-2,-7.477074E-2,2.1882085E-2,-3.6624316E-2,2.299026E-2,4.7519904E-2,-3.1578723E-2,-6.024028E-2,-2.245936E-4,-6.1614316E-2,1.588193E-2,-2.1310812E-2,2.9378358E-2,-2.9785281E-2,-2.1356265E-3,6.7498595E-2,-6.992363E-2,-4.8044913E-2,-6.661623E-2,-3.977599E-2,1.0094534E-3,-5.2352067E-2,4.034267E-2,-3.816635E-2,-1.6418165E-2,3.9079953E-2,1.4432045E-2,-6.86813E-2,-6.228285E-2,4.083273E-3,-3.901015E-2,-6.371706E-2,-6.2922426E-2,-6.721396E-2],"categories":[],"categories_nodes":[],"categories_segments":[],"categories_sizes":[],"default_left":[0,0,0,0,0,0,0,1,0,0,1,0,0,0,0,0,0,0,0,0,0,0,0,0,0,0,0,0,0,0,0,0,0,0,0,0,0,0,0,1,0,0,0,0,0,0,0,0,0,0,0,0,0,0,0,0,0,0,0,0,0,0,0,0,0,0,0,0,0,0,0,0,0,0,0,0,0,0,0,0,0,0,0,0,0,0,0,0,0,0,0,0,0,0,0,0,0,0,0,0,0,0,0,0,0,0,0],"id":13,"left_children":[1,3,5,7,9,11,13,15,17,19,21,23,25,27,29,31,33,35,37,39,41,-1,-1,43,45,47,49,51,53,55,57,59,61,63,65,67,69,71,-1,73,75,-1,77,79,81,83,85,87,89,-1,91,93,95,97,-1,99,101,103,105,-1,-1,-1,-1,-1,-1,-1,-1,-1,-1,-1,-1,-1,-1,-1,-1,-1,-1,-1,-1,-1,-1,-1,-1,-1,-1,-1,-1,-1,-1,-1,-1,-1,-1,-1,-1,-1,-1,-1,-1,-1,-1,-1,-1,-1,-1,-1,-1],"loss_changes":[6.5932095E3,9.083113E2,9.310654E2,2.4605542E2,3.781363E1,4.967294E2,3.5032666E2,1.14767334E2,1.5927458E2,2.645892E1,9.6066284E-1,6.6387805E2,2.965271E1,7.2086624E1,2.6440918E1,1.2421753E2,1.6202875E2,6.960435E1,1.5524304E2,7.7990646E0,6.3643436E0,0E0,0E0,1.528772E2,1.6550052E2,1.12182945E2,8.657837E-1,4.576532E1,7.420553E1,5.7335083E1,3.6896973E0,2.7851746E2,8.992285E1,2.739957E2,1.7266003E2,4.0828827E1,3.406121E1,6.2200287E1,0E0,4.6213913E-1,7.7851677E0,0E0,1.8686867E-1,5.236731E1,9.176248E1,9.97032E1,1.841669E2,1.1250019E1,2.8081512E0,0E0,5.45166E-1,4.6698273E1,3.2018143E1,8.186619E1,0E0,7.127219E1,9.632263E0,6.145401E0,3.8745117E-1,0E0,0E0,0E0,0E0,0E0,0E0,0E0,0E0,0E0,0E0,0E0,0E0,0E0,0E0,0E0,0E0,0E0,0E0,0E0,0E0,0E0,0E0,0E0,0E0,0E0,0E0,0E0,0E0,0E0,0E0,0E0,0E0,0E0,0E0,0E0,0E0,0E0,0E0,0E0,0E0,0E0,0E0,0E0,0E0,0E0,0E0,0E0,0E0],"parents":[2147483647,0,0,1,1,2,2,3,3,4,4,5,5,6,6,7,7,8,8,9,9,10,10,11,11,12,12,13,13,14,14,15,15,16,16,17,17,18,18,19,19,20,20,23,23,24,24,25,25,26,26,27,27,28,28,29,29,30,30,31,31,32,32,33,33,34,34,35,35,36,36,37,37,39,39,40,40,42,42,43,43,44,44,45,45,46,46,47,47,48,48,50,50,51,51,52,52,53,53,55,55,56,56,57,57,58,58],"right_children":[2,4,6,8,10,12,14,16,18,20,22,24,26,28,30,32,34,36,38,40,42,-1,-1,44,46,48,50,52,54,56,58,60,62,64,66,68,70,72,-1,74,76,-1,78,80,82,84,86,88,90,-1,92,94,96,98,-1,100,102,104,106,-1,-1,-1,-1,-1,-1,-1,-1,-1,-1,-1,-1,-1,-1,-1,-1,-1,-1,-1,-1,-1,-1,-1,-1,-1,-1,-1,-1,-1,-1,-1,-1,-1,-1,-1,-1,-1,-1,-1,-1,-1,-1,-1,-1,-1,-1,-1,-1],"split_conditions":[3.794659E1,1.2699281E2,1.4429659E1,2.3376076E1,1.5440881E2,3.31464E1,6.395293E1,3.217788E1,9.103E0,1.7519E1,2.0806E1,7.7E0,3.338155E1,-2.7E1,3.2514317E1,-6.2E1,1.1658E1,3.2345787E1,2.101E1,3.0975136E1,2.0078032E0,-6.6265084E-2,-3.2245006E-2,-1.55E2,-1.77E2,1.04481125E2,4.724485E1,1.02605015E-1,9.488153E1,2.2508358E1,7.5545E1,1.0142564E1,1.8242819E1,3.800988E1,8.254177E1,2.1315744E0,4.6135718E-1,8.814657E1,-7.321185E-2,1.7419001E-2,3.1165777E1,-1.2520741E-2,2.0629E1,4.7212866E-1,1.04481125E2,4.7212866E-1,1.186518E2,7.813E0,7.857048E0,-3.4357112E-2,1.9979669E-1,2.0671179E1,1.7737E1,8.4705055E1,-6.910933E-2,1.1755832E2,2.2583E1,1.5309E1,8.549E0,4.8047036E-2,-3.4383416E-2,4.8800863E-2,-7.954375E-4,3.8183298E-2,-4.2451832E-2,-2.482678E-3,4.7361E-2,-2.1623632E-2,1.430042E-2,5.4158803E-2,-4.9836874E-2,1.9606274E-2,4.4104178E-2,-3.7390187E-2,-7.477074E-2,2.1882085E-2,-3.6624316E-2,2.299026E-2,4.7519904E-2,-3.1578723E-2,-6.024028E-2,-2.245936E-4,-6.1614316E-2,1.588193E-2,-2.1310812E-2,2.9378358E-2,-2.9785281E-2,-2.1356265E-3,6.7498595E-2,-6.992363E-2,-4.8044913E-2,-6.661623E-2,-3.977599E-2,1.0094534E-3,-5.2352067E-2,4.034267E-2,-3.816635E-2,-1.6418165E-2,3.9079953E-2,1.4432045E-2,-6.86813E-2,-6.228285E-2,4.083273E-3,-3.901015E-2,-6.371706E-2,-6.2922426E-2,-6.721396E-2],"split_indices":[8,9,9,8,9,2,8,2,0,0,0,0,2,3,2,3,0,2,0,2,7,0,0,3,3,8,8,4,9,9,8,9,8,9,9,7,9,9,0,4,2,0,0,9,8,9,8,0,7,0,4,9,0,9,0,8,0,0,0,0,0,0,0,0,0,0,0,0,0,0,0,0,0,0,0,0,0,0,0,0,0,0,0,0,0,0,0,0,0,0,0,0,0,0,0,0,0,0,0,0,0,0,0,0,0,0,0],"split_type":[0,0,0,0,0,0,0,0,0,0,0,0,0,0,0,0,0,0,0,0,0,0,0,0,0,0,0,0,0,0,0,0,0,0,0,0,0,0,0,0,0,0,0,0,0,0,0,0,0,0,0,0,0,0,0,0,0,0,0,0,0,0,0,0,0,0,0,0,0,0,0,0,0,0,0,0,0,0,0,0,0,0,0,0,0,0,0,0,0,0,0,0,0,0,0,0,0,0,0,0,0,0,0,0,0,0,0],"sum_hessian":[1.4653557E4,7.677056E3,6.9765005E3,7.3482446E3,3.2881152E2,3.6444958E3,3.3320046E3,5.7781104E3,1.5701339E3,1.5445853E2,1.7435301E2,3.0551868E3,5.89309E2,7.487822E2,2.5832224E3,4.184006E3,1.5941045E3,4.911515E2,1.0789824E3,1.3191528E2,2.2543243E1,1.6879797E2,5.5550313E0,1.1593146E3,1.8958722E3,1.2965967E2,4.5964932E2,4.003308E2,3.4845142E2,4.8517426E2,2.098048E3,4.52282E2,3.731724E3,4.2446112E2,1.1696434E3,3.8646155E2,1.0468995E2,1.0437252E3,3.5257275E1,2.0707499E1,1.1120779E2,9.23827E0,1.3304975E1,7.8957715E2,3.6973746E2,8.036385E2,1.0922336E3,2.8112238E1,1.01547424E2,6.1504064E0,4.5349893E2,3.4973373E2,5.0597076E1,3.064316E2,4.2019794E1,1.0518668E2,3.7998758E2,1.3790903E2,1.960139E3,2.9704773E2,1.5523428E2,3.6382134E3,9.351064E1,2.3548294E2,1.889782E2,2.1184932E2,9.5779407E2,1.0951459E2,2.7694696E2,7.7047806E0,9.698517E1,5.128609E2,5.3086426E2,5.0804358E0,1.5627063E1,5.2625933E0,1.0594519E2,5.90677E0,7.398204E0,2.292683E2,5.6030884E2,2.9390866E2,7.582879E1,2.7104846E2,5.3259E2,9.4024023E2,1.5199341E2,7.6824207E0,2.0429817E1,6.455047E1,3.6996964E1,4.4543225E2,8.066678E0,4.7146637E1,3.025871E2,2.8259026E1,2.2338053E1,2.1056096E2,9.587067E1,6.2826023E1,4.2360664E1,3.747038E2,5.2837768E0,4.583265E1,9.2076385E1,4.1432147E2,1.5458175E3],"tree_param":{"num_deleted":"0","num_feature":"10","num_nodes":"107","size_leaf_vector":"1"}},{"base_weights":[8.0870744E-4,5.7811934E-1,-7.33668E-1,7.009878E-1,2.2192828E-1,-1.0586935E0,-3.3015606E-1,7.499219E-1,-1.1989311E-1,-2.9657352E-1,4.1419733E-1,-2.8825924E-1,-1.1567273E0,-1.324574E-1,-1.2857587E0,8.422028E-1,4.9894756E-1,-1.0198158E0,6.640573E-2,-5.767745E-1,-7.3752087E-3,-4.3201396E-1,6.362387E-1,-1.5948619E-1,-1.195461E0,-9.5360684E-1,-1.3039927E0,1.8585656E-2,-6.6528016E-1,-3.6904177E-1,-1.3142884E0,9.5902926E-1,5.206575E-1,8.836524E-2,7.9472196E-1,1.5188119E-2,-1.2518369E0,4.0204006E-1,-2.7431905E-1,7.552041E-1,-6.8549705E-1,2.4456173E-1,-4.976967E-1,-3.07023E-1,-7.23136E-2,6.649091E-1,-1.2013688E0,-2.6070598E-1,6.44841E-1,-1.3082052E0,-7.815256E-3,-8.1230134E-1,-1.2498398E0,-1.3146814E0,-8.311112E-1,2.184305E-1,-3.5079202E-1,-4.6717346E-1,-1.4647232E0,-3.6847245E-2,1.3717818E-2,-9.328781E-1,-6.679695E-2,